FANN_FLO_2.1
num_layers=3
learning_rate=0.700000
connection_rate=1.000000
network_type=0
learning_momentum=0.000000
training_algorithm=2
train_error_function=1
train_stop_function=0
cascade_output_change_fraction=0.010000
quickprop_decay=-0.000100
quickprop_mu=1.750000
rprop_increase_factor=1.200000
rprop_decrease_factor=0.500000
rprop_delta_min=0.000000
rprop_delta_max=50.000000
rprop_delta_zero=0.100000
cascade_output_stagnation_epochs=12
cascade_candidate_change_fraction=0.010000
cascade_candidate_stagnation_epochs=12
cascade_max_out_epochs=150
cascade_max_cand_epochs=150
cascade_num_candidate_groups=2
bit_fail_limit=3.49999999999999977796e-01
cascade_candidate_limit=1.00000000000000000000e+03
cascade_weight_multiplier=4.00000000000000022204e-01
cascade_activation_functions_count=10
cascade_activation_functions=3 5 7 8 10 11 14 15 16 17 
cascade_activation_steepnesses_count=4
cascade_activation_steepnesses=2.50000000000000000000e-01 5.00000000000000000000e-01 7.50000000000000000000e-01 1.00000000000000000000e+00 
layer_sizes=17 129 17 
scale_included=0
neurons (num_inputs, activation_function, activation_steepness)=(0, 0, 0.00000000000000000000e+00) (0, 0, 0.00000000000000000000e+00) (0, 0, 0.00000000000000000000e+00) (0, 0, 0.00000000000000000000e+00) (0, 0, 0.00000000000000000000e+00) (0, 0, 0.00000000000000000000e+00) (0, 0, 0.00000000000000000000e+00) (0, 0, 0.00000000000000000000e+00) (0, 0, 0.00000000000000000000e+00) (0, 0, 0.00000000000000000000e+00) (0, 0, 0.00000000000000000000e+00) (0, 0, 0.00000000000000000000e+00) (0, 0, 0.00000000000000000000e+00) (0, 0, 0.00000000000000000000e+00) (0, 0, 0.00000000000000000000e+00) (0, 0, 0.00000000000000000000e+00) (0, 0, 0.00000000000000000000e+00) (17, 4, 5.00000000000000000000e-01) (17, 4, 5.00000000000000000000e-01) (17, 4, 5.00000000000000000000e-01) (17, 4, 5.00000000000000000000e-01) (17, 4, 5.00000000000000000000e-01) (17, 4, 5.00000000000000000000e-01) (17, 4, 5.00000000000000000000e-01) (17, 4, 5.00000000000000000000e-01) (17, 4, 5.00000000000000000000e-01) (17, 4, 5.00000000000000000000e-01) (17, 4, 5.00000000000000000000e-01) (17, 4, 5.00000000000000000000e-01) (17, 4, 5.00000000000000000000e-01) (17, 4, 5.00000000000000000000e-01) (17, 4, 5.00000000000000000000e-01) (17, 4, 5.00000000000000000000e-01) (17, 4, 5.00000000000000000000e-01) (17, 4, 5.00000000000000000000e-01) (17, 4, 5.00000000000000000000e-01) (17, 4, 5.00000000000000000000e-01) (17, 4, 5.00000000000000000000e-01) (17, 4, 5.00000000000000000000e-01) (17, 4, 5.00000000000000000000e-01) (17, 4, 5.00000000000000000000e-01) (17, 4, 5.00000000000000000000e-01) (17, 4, 5.00000000000000000000e-01) (17, 4, 5.00000000000000000000e-01) (17, 4, 5.00000000000000000000e-01) (17, 4, 5.00000000000000000000e-01) (17, 4, 5.00000000000000000000e-01) (17, 4, 5.00000000000000000000e-01) (17, 4, 5.00000000000000000000e-01) (17, 4, 5.00000000000000000000e-01) (17, 4, 5.00000000000000000000e-01) (17, 4, 5.00000000000000000000e-01) (17, 4, 5.00000000000000000000e-01) (17, 4, 5.00000000000000000000e-01) (17, 4, 5.00000000000000000000e-01) (17, 4, 5.00000000000000000000e-01) (17, 4, 5.00000000000000000000e-01) (17, 4, 5.00000000000000000000e-01) (17, 4, 5.00000000000000000000e-01) (17, 4, 5.00000000000000000000e-01) (17, 4, 5.00000000000000000000e-01) (17, 4, 5.00000000000000000000e-01) (17, 4, 5.00000000000000000000e-01) (17, 4, 5.00000000000000000000e-01) (17, 4, 5.00000000000000000000e-01) (17, 4, 5.00000000000000000000e-01) (17, 4, 5.00000000000000000000e-01) (17, 4, 5.00000000000000000000e-01) (17, 4, 5.00000000000000000000e-01) (17, 4, 5.00000000000000000000e-01) (17, 4, 5.00000000000000000000e-01) (17, 4, 5.00000000000000000000e-01) (17, 4, 5.00000000000000000000e-01) (17, 4, 5.00000000000000000000e-01) (17, 4, 5.00000000000000000000e-01) (17, 4, 5.00000000000000000000e-01) (17, 4, 5.00000000000000000000e-01) (17, 4, 5.00000000000000000000e-01) (17, 4, 5.00000000000000000000e-01) (17, 4, 5.00000000000000000000e-01) (17, 4, 5.00000000000000000000e-01) (17, 4, 5.00000000000000000000e-01) (17, 4, 5.00000000000000000000e-01) (17, 4, 5.00000000000000000000e-01) (17, 4, 5.00000000000000000000e-01) (17, 4, 5.00000000000000000000e-01) (17, 4, 5.00000000000000000000e-01) (17, 4, 5.00000000000000000000e-01) (17, 4, 5.00000000000000000000e-01) (17, 4, 5.00000000000000000000e-01) (17, 4, 5.00000000000000000000e-01) (17, 4, 5.00000000000000000000e-01) (17, 4, 5.00000000000000000000e-01) (17, 4, 5.00000000000000000000e-01) (17, 4, 5.00000000000000000000e-01) (17, 4, 5.00000000000000000000e-01) (17, 4, 5.00000000000000000000e-01) (17, 4, 5.00000000000000000000e-01) (17, 4, 5.00000000000000000000e-01) (17, 4, 5.00000000000000000000e-01) (17, 4, 5.00000000000000000000e-01) (17, 4, 5.00000000000000000000e-01) (17, 4, 5.00000000000000000000e-01) (17, 4, 5.00000000000000000000e-01) (17, 4, 5.00000000000000000000e-01) (17, 4, 5.00000000000000000000e-01) (17, 4, 5.00000000000000000000e-01) (17, 4, 5.00000000000000000000e-01) (17, 4, 5.00000000000000000000e-01) (17, 4, 5.00000000000000000000e-01) (17, 4, 5.00000000000000000000e-01) (17, 4, 5.00000000000000000000e-01) (17, 4, 5.00000000000000000000e-01) (17, 4, 5.00000000000000000000e-01) (17, 4, 5.00000000000000000000e-01) (17, 4, 5.00000000000000000000e-01) (17, 4, 5.00000000000000000000e-01) (17, 4, 5.00000000000000000000e-01) (17, 4, 5.00000000000000000000e-01) (17, 4, 5.00000000000000000000e-01) (17, 4, 5.00000000000000000000e-01) (17, 4, 5.00000000000000000000e-01) (17, 4, 5.00000000000000000000e-01) (17, 4, 5.00000000000000000000e-01) (17, 4, 5.00000000000000000000e-01) (17, 4, 5.00000000000000000000e-01) (17, 4, 5.00000000000000000000e-01) (17, 4, 5.00000000000000000000e-01) (17, 4, 5.00000000000000000000e-01) (17, 4, 5.00000000000000000000e-01) (17, 4, 5.00000000000000000000e-01) (17, 4, 5.00000000000000000000e-01) (17, 4, 5.00000000000000000000e-01) (17, 4, 5.00000000000000000000e-01) (17, 4, 5.00000000000000000000e-01) (17, 4, 5.00000000000000000000e-01) (17, 4, 5.00000000000000000000e-01) (17, 4, 5.00000000000000000000e-01) (17, 4, 5.00000000000000000000e-01) (17, 4, 5.00000000000000000000e-01) (17, 4, 5.00000000000000000000e-01) (17, 4, 5.00000000000000000000e-01) (17, 4, 5.00000000000000000000e-01) (17, 4, 5.00000000000000000000e-01) (17, 4, 5.00000000000000000000e-01) (0, 0, 0.00000000000000000000e+00) (129, 6, 5.00000000000000000000e-01) (129, 6, 5.00000000000000000000e-01) (129, 6, 5.00000000000000000000e-01) (129, 6, 5.00000000000000000000e-01) (129, 6, 5.00000000000000000000e-01) (129, 6, 5.00000000000000000000e-01) (129, 6, 5.00000000000000000000e-01) (129, 6, 5.00000000000000000000e-01) (129, 6, 5.00000000000000000000e-01) (129, 6, 5.00000000000000000000e-01) (129, 6, 5.00000000000000000000e-01) (129, 6, 5.00000000000000000000e-01) (129, 6, 5.00000000000000000000e-01) (129, 6, 5.00000000000000000000e-01) (129, 6, 5.00000000000000000000e-01) (129, 6, 5.00000000000000000000e-01) (0, 6, 0.00000000000000000000e+00) 
connections (connected_to_neuron, weight)=(0, -1.45000000000000000000e+03) (1, -1.42639999706745129515e+03) (2, -1.42639999706745129515e+03) (3, -1.45000000000000000000e+03) (4, -1.45000000000000000000e+03) (5, -1.42639999706745129515e+03) (6, -1.07824400037210807568e+03) (7, 1.11438907993395801554e+02) (8, -7.70499532380700102863e+00) (9, 1.50000000000000000000e+03) (10, 1.11391296041567798625e+02) (11, -7.51905128070712081012e+00) (12, 1.22069563970066587899e+03) (13, -1.42639999706745129515e+03) (14, 1.50000000000000000000e+03) (15, 1.22068776700742523644e+03) (16, -1.45000000000000000000e+03) (0, -1.45000000000000000000e+03) (1, 5.80554678597893030201e+01) (2, 5.80643848450328619037e+01) (3, -1.45000000000000000000e+03) (4, -1.45000000000000000000e+03) (5, 5.81071577304448396717e+01) (6, -1.45000000000000000000e+03) (7, 1.07957395982134940482e+02) (8, 8.65226437230822284619e+02) (9, 1.50000000000000000000e+03) (10, 1.08012523800272347785e+02) (11, 8.65159764749225814739e+02) (12, 1.50000000000000000000e+03) (13, 5.81396929704989702259e+01) (14, 1.50000000000000000000e+03) (15, 1.50000000000000000000e+03) (16, -1.45000000000000000000e+03) (0, -1.02352987778961187360e+03) (1, 6.41763898258303697730e+01) (2, 6.43421277602409418250e+01) (3, -1.02342949169903522488e+03) (4, -1.02336354735522991177e+03) (5, 6.42918687363361414100e+01) (6, -1.12279608565025318967e+03) (7, 3.82873390798518755673e+01) (8, 6.95433999181548188062e+02) (9, 1.22377870367629384418e+03) (10, 3.82487263900289633511e+01) (11, 6.95470452160397599073e+02) (12, 1.22349723018600161595e+03) (13, 6.41949774821495111610e+01) (14, 1.22389294868869637867e+03) (15, 1.22355059294296916050e+03) (16, -1.02346634875267272946e+03) (0, -1.45000000000000000000e+03) (1, 5.74869934830786633029e+01) (2, 5.74957631517173695102e+01) (3, -1.45000000000000000000e+03) (4, -1.45000000000000000000e+03) (5, 5.76230596441747593417e+01) (6, -1.36381730127545802134e+03) (7, 3.67468512513176079892e+01) (8, 1.17539701945503270508e+03) (9, 1.50000000000000000000e+03) (10, 3.67751256533399697446e+01) (11, 1.17540486472268617035e+03) (12, 1.46410608134205858732e+03) (13, 5.76525969345094608798e+01) (14, 1.50000000000000000000e+03) (15, 1.46414082366015236403e+03) (16, -1.45000000000000000000e+03) (0, -1.45000000000000000000e+03) (1, 5.55943615582250316720e+01) (2, 5.56094125654958446603e+01) (3, -1.45000000000000000000e+03) (4, -1.45000000000000000000e+03) (5, 5.55586120333932598214e+01) (6, -1.45000000000000000000e+03) (7, 3.69612807475609770336e+01) (8, 1.17534180978157201025e+03) (9, 1.50000000000000000000e+03) (10, 3.69712124907059660472e+01) (11, 1.17526464507572927687e+03) (12, 1.50000000000000000000e+03) (13, 5.55791018154882152658e+01) (14, 1.50000000000000000000e+03) (15, 1.50000000000000000000e+03) (16, -1.45000000000000000000e+03) (0, -1.45000000000000000000e+03) (1, 6.02567196715524318051e+01) (2, 6.02109185907890918088e+01) (3, -1.45000000000000000000e+03) (4, -1.45000000000000000000e+03) (5, 6.02348741184821250272e+01) (6, -1.45000000000000000000e+03) (7, 3.84146239914705773799e+01) (8, 9.34676058420618801392e+02) (9, 1.50000000000000000000e+03) (10, 3.85086035215070268123e+01) (11, 9.34790018902798919953e+02) (12, 1.50000000000000000000e+03) (13, 6.03588325757434489560e+01) (14, 1.50000000000000000000e+03) (15, 1.50000000000000000000e+03) (16, -1.45000000000000000000e+03) (0, -1.45000000000000000000e+03) (1, 5.94743940657500758107e+01) (2, 5.95081140747789874013e+01) (3, -1.45000000000000000000e+03) (4, -1.45000000000000000000e+03) (5, 5.95844648382191195424e+01) (6, -1.45000000000000000000e+03) (7, 4.16515034263501718215e+02) (8, 1.03939874288791907020e+03) (9, 1.50000000000000000000e+03) (10, 4.16585178924272611312e+02) (11, 1.03932003666067612357e+03) (12, 1.50000000000000000000e+03) (13, 5.95306600979094042714e+01) (14, 1.50000000000000000000e+03) (15, 1.50000000000000000000e+03) (16, -1.45000000000000000000e+03) (0, -8.38524203876811384362e+02) (1, -1.45000000000000000000e+03) (2, -1.45000000000000000000e+03) (3, -8.38504492054540037316e+02) (4, -8.38442005227166532677e+02) (5, -1.45000000000000000000e+03) (6, -8.38151430031104951013e+02) (7, 9.07249534066441896130e+01) (8, -4.77189529480523262350e+01) (9, 9.80956399684421626262e+02) (10, 9.05295409645560624767e+01) (11, -4.76157669143861923544e+01) (12, 9.80859683014400275169e+02) (13, -1.45000000000000000000e+03) (14, 9.81056480621568766765e+02) (15, 9.80855413656629593788e+02) (16, -8.38428586716610311669e+02) (0, -1.45000000000000000000e+03) (1, 6.05361047314217159965e+01) (2, 6.04545213581731388786e+01) (3, -1.45000000000000000000e+03) (4, -1.45000000000000000000e+03) (5, 6.04844844789912770011e+01) (6, -1.45000000000000000000e+03) (7, 3.96713749890857840796e+01) (8, 1.41598691235610772310e+03) (9, 1.50000000000000000000e+03) (10, 3.98076374320024157782e+01) (11, 1.41614965535083342729e+03) (12, 1.50000000000000000000e+03) (13, 6.05442812444379399039e+01) (14, 1.50000000000000000000e+03) (15, 1.50000000000000000000e+03) (16, -1.45000000000000000000e+03) (0, -1.45000000000000000000e+03) (1, 5.98530075582000904433e+01) (2, 5.98333438033494644515e+01) (3, -1.45000000000000000000e+03) (4, -1.45000000000000000000e+03) (5, 5.99516207831237011305e+01) (6, -1.36406140514277149123e+03) (7, 3.92766433214319903300e+01) (8, 1.50000000000000000000e+03) (9, 1.50000000000000000000e+03) (10, 3.92996840966416556284e+01) (11, 1.50000000000000000000e+03) (12, 1.46447410536848656193e+03) (13, 5.98444824846718006484e+01) (14, 1.50000000000000000000e+03) (15, 1.46432025902636996761e+03) (16, -1.45000000000000000000e+03) (0, -1.45000000000000000000e+03) (1, 5.81014259632871983285e+01) (2, 5.80603425976084110971e+01) (3, -1.45000000000000000000e+03) (4, -1.45000000000000000000e+03) (5, 5.81108081516073582407e+01) (6, -1.45000000000000000000e+03) (7, 3.83069779122326536935e+01) (8, 9.34910720352959060619e+02) (9, 1.50000000000000000000e+03) (10, 3.84136846060011549753e+01) (11, 9.34730281454455280254e+02) (12, 1.50000000000000000000e+03) (13, 5.80130743559645054575e+01) (14, 1.50000000000000000000e+03) (15, 1.50000000000000000000e+03) (16, -1.45000000000000000000e+03) (0, -1.45000000000000000000e+03) (1, 5.74734607268213437692e+01) (2, 5.74212347570895360604e+01) (3, -1.45000000000000000000e+03) (4, -1.45000000000000000000e+03) (5, 5.74592246789573835031e+01) (6, -1.36384131466616122452e+03) (7, 3.76601439918951115260e+01) (8, 9.35464060076281157308e+02) (9, 1.50000000000000000000e+03) (10, 3.77901196162776074061e+01) (11, 9.35564251736506548696e+02) (12, 1.46422684780259305626e+03) (13, 5.74367499914108918802e+01) (14, 1.50000000000000000000e+03) (15, 1.46429705113296085983e+03) (16, -1.45000000000000000000e+03) (0, -1.45000000000000000000e+03) (1, 6.07664820211746814493e+01) (2, 6.06700105699517848734e+01) (3, -1.45000000000000000000e+03) (4, -1.45000000000000000000e+03) (5, 6.07750340062000873331e+01) (6, -1.45000000000000000000e+03) (7, 3.71599382542416023512e+01) (8, 1.17519605979033553922e+03) (9, 1.50000000000000000000e+03) (10, 3.72036030225798057813e+01) (11, 1.17526970731922233426e+03) (12, 1.50000000000000000000e+03) (13, 6.05889654937007549051e+01) (14, 1.50000000000000000000e+03) (15, 1.50000000000000000000e+03) (16, -1.45000000000000000000e+03) (0, -1.45000000000000000000e+03) (1, 5.95122125877639831515e+01) (2, 5.93921844272515357943e+01) (3, -1.45000000000000000000e+03) (4, -1.45000000000000000000e+03) (5, 5.95017013235590042086e+01) (6, -1.45000000000000000000e+03) (7, 5.47248183610954370693e+01) (8, 9.18468382448828378983e+02) (9, 1.50000000000000000000e+03) (10, 5.48737447011389818385e+01) (11, 9.18473340020454088517e+02) (12, 1.50000000000000000000e+03) (13, 5.94160092382332862826e+01) (14, 1.50000000000000000000e+03) (15, 1.50000000000000000000e+03) (16, -1.45000000000000000000e+03) (0, -1.45000000000000000000e+03) (1, 6.00084732827618125839e+01) (2, 6.01424317640140060348e+01) (3, -1.45000000000000000000e+03) (4, -1.45000000000000000000e+03) (5, 6.01771590095832351608e+01) (6, -1.45000000000000000000e+03) (7, 3.81169710751328665310e+01) (8, 9.34986012802254435883e+02) (9, 1.50000000000000000000e+03) (10, 3.82564995918128687435e+01) (11, 9.35041690424811122284e+02) (12, 1.50000000000000000000e+03) (13, 6.01020745244696144027e+01) (14, 1.50000000000000000000e+03) (15, 1.50000000000000000000e+03) (16, -1.45000000000000000000e+03) (0, -1.45000000000000000000e+03) (1, 6.02847747318961779683e+01) (2, 6.02478945591070811361e+01) (3, -1.45000000000000000000e+03) (4, -1.45000000000000000000e+03) (5, 6.02747854032137553304e+01) (6, -1.45000000000000000000e+03) (7, 3.69757595301624633066e+01) (8, 1.17534584768926220022e+03) (9, 1.50000000000000000000e+03) (10, 3.70136440412160254709e+01) (11, 1.17527083152597265325e+03) (12, 1.50000000000000000000e+03) (13, 6.03498229645707766622e+01) (14, 1.50000000000000000000e+03) (15, 1.50000000000000000000e+03) (16, -1.45000000000000000000e+03) (0, -1.45000000000000000000e+03) (1, 5.94777670795747894772e+01) (2, 5.95618888432809967526e+01) (3, -1.45000000000000000000e+03) (4, -1.45000000000000000000e+03) (5, 5.94886073837706703671e+01) (6, -1.45000000000000000000e+03) (7, 2.04282351487762895204e+02) (8, 1.00821081018056020184e+03) (9, 1.50000000000000000000e+03) (10, 2.04293232457227674104e+02) (11, 1.00828729536737546368e+03) (12, 1.50000000000000000000e+03) (13, 5.94417230109402794369e+01) (14, 1.50000000000000000000e+03) (15, 1.50000000000000000000e+03) (16, -1.45000000000000000000e+03) (0, -8.38163448379831947932e+02) (1, -1.45000000000000000000e+03) (2, -1.45000000000000000000e+03) (3, -8.38194324673610367427e+02) (4, -8.38277706318991818080e+02) (5, -1.45000000000000000000e+03) (6, -8.37250972724559346716e+02) (7, 1.64688912247893810559e+01) (8, -8.62568408123183871794e+00) (9, 9.80847493175564636658e+02) (10, 1.65510039841411114026e+01) (11, -8.55635857454467441130e+00) (12, 9.80008569159177227448e+02) (13, -1.45000000000000000000e+03) (14, 9.80766736429332127045e+02) (15, 9.80040664859679623078e+02) (16, -8.38305335958945192942e+02) (0, -1.45000000000000000000e+03) (1, 6.02927395720286938285e+01) (2, 6.02827512789769741630e+01) (3, -1.45000000000000000000e+03) (4, -1.45000000000000000000e+03) (5, 6.01824759636326405143e+01) (6, -1.45000000000000000000e+03) (7, 3.81254657181313021397e+01) (8, 9.34913137731631991301e+02) (9, 1.50000000000000000000e+03) (10, 3.81576345274558050846e+01) (11, 9.34974333514949080381e+02) (12, 1.50000000000000000000e+03) (13, 6.02903444785876843071e+01) (14, 1.50000000000000000000e+03) (15, 1.50000000000000000000e+03) (16, -1.45000000000000000000e+03) (0, -1.45000000000000000000e+03) (1, 5.76505874487197473854e+01) (2, 5.76441169621980264992e+01) (3, -1.45000000000000000000e+03) (4, -1.45000000000000000000e+03) (5, 5.76467004510200098366e+01) (6, -1.45000000000000000000e+03) (7, 3.56278862774289279969e+01) (8, 1.50000000000000000000e+03) (9, 1.50000000000000000000e+03) (10, 3.54860438972628742249e+01) (11, 1.50000000000000000000e+03) (12, 1.50000000000000000000e+03) (13, 5.76050996127164438576e+01) (14, 1.50000000000000000000e+03) (15, 1.50000000000000000000e+03) (16, -1.45000000000000000000e+03) (0, -1.24818123027069600539e+03) (1, -1.12250527872542579644e+03) (2, -1.12243253972778757088e+03) (3, -1.24833131293339761214e+03) (4, -1.24816756753010781722e+03) (5, -1.12247535650084455483e+03) (6, -8.37845026230699772896e+02) (7, 6.78859906845590099778e+00) (8, -3.90339949350798631755e-01) (9, 1.39881693114597123895e+03) (10, 6.84925722532769665207e+00) (11, -3.08689103644335771648e-01) (12, 9.80461174424056935095e+02) (13, -1.12247429170111854546e+03) (14, 1.39872697062302154336e+03) (15, 9.80380620609288143896e+02) (16, -1.24816527656598123031e+03) (0, -1.45000000000000000000e+03) (1, 5.94499975626863630396e+01) (2, 5.94677270089782865625e+01) (3, -1.45000000000000000000e+03) (4, -1.45000000000000000000e+03) (5, 5.94120080953039320093e+01) (6, -1.45000000000000000000e+03) (7, 4.14073693832438038953e+01) (8, 9.31952905952273340517e+02) (9, 1.50000000000000000000e+03) (10, 4.14069421371500538953e+01) (11, 9.31972115106223554903e+02) (12, 1.50000000000000000000e+03) (13, 5.93242120181717069727e+01) (14, 1.50000000000000000000e+03) (15, 1.50000000000000000000e+03) (16, -1.45000000000000000000e+03) (0, -1.45000000000000000000e+03) (1, 6.02167060636499087423e+01) (2, 6.02178228088238398641e+01) (3, -1.45000000000000000000e+03) (4, -1.45000000000000000000e+03) (5, 6.02556874491789500325e+01) (6, -1.45000000000000000000e+03) (7, 3.70886432618852950327e+01) (8, 1.17538277928595857702e+03) (9, 1.50000000000000000000e+03) (10, 3.70065000371095038645e+01) (11, 1.17540147306089716039e+03) (12, 1.50000000000000000000e+03) (13, 6.03011699803688685506e+01) (14, 1.50000000000000000000e+03) (15, 1.50000000000000000000e+03) (16, -1.45000000000000000000e+03) (0, -1.45000000000000000000e+03) (1, 6.08645393760796196148e+01) (2, 6.07308815704579956218e+01) (3, -1.45000000000000000000e+03) (4, -1.45000000000000000000e+03) (5, 6.07625787692065841838e+01) (6, -1.45000000000000000000e+03) (7, 3.70331229420943230934e+01) (8, 1.17540237242057241929e+03) (9, 1.50000000000000000000e+03) (10, 3.69532361852569550820e+01) (11, 1.17534584998785771859e+03) (12, 1.50000000000000000000e+03) (13, 6.08474406810398704692e+01) (14, 1.50000000000000000000e+03) (15, 1.50000000000000000000e+03) (16, -1.45000000000000000000e+03) (0, -1.45000000000000000000e+03) (1, 5.66804221480208951789e+01) (2, 5.66195893867928106147e+01) (3, -1.45000000000000000000e+03) (4, -1.45000000000000000000e+03) (5, 5.66206790416556913215e+01) (6, -1.45000000000000000000e+03) (7, 3.80029619490549208649e+01) (8, 9.35250755655142938849e+02) (9, 1.50000000000000000000e+03) (10, 3.81397253131315352448e+01) (11, 9.35232489960763132331e+02) (12, 1.50000000000000000000e+03) (13, 5.66503592639285642463e+01) (14, 1.50000000000000000000e+03) (15, 1.50000000000000000000e+03) (16, -1.45000000000000000000e+03) (0, -1.45000000000000000000e+03) (1, 5.79370630484269497629e+01) (2, 5.80128500487850544687e+01) (3, -1.45000000000000000000e+03) (4, -1.45000000000000000000e+03) (5, 5.79341876086042759653e+01) (6, -1.45000000000000000000e+03) (7, 3.84773060307762833077e+01) (8, 9.34638723003329573658e+02) (9, 1.50000000000000000000e+03) (10, 3.85211656317970962959e+01) (11, 9.34587108145119486835e+02) (12, 1.50000000000000000000e+03) (13, 5.80285339754269955392e+01) (14, 1.50000000000000000000e+03) (15, 1.50000000000000000000e+03) (16, -1.45000000000000000000e+03) (0, -8.37878674570571433833e+02) (1, -1.45000000000000000000e+03) (2, -1.45000000000000000000e+03) (3, -8.37754772529106389811e+02) (4, -8.37901350922982942393e+02) (5, -1.45000000000000000000e+03) (6, -8.37245010370218892604e+02) (7, 7.44435023939671850712e+02) (8, -6.43863540431942737996e+02) (9, 9.80412415788098883240e+02) (10, 7.44325373655619955571e+02) (11, -6.43755794914897478520e+02) (12, 9.79950392849712557108e+02) (13, -1.45000000000000000000e+03) (14, 9.80534108181073975175e+02) (15, 9.79926070094077772410e+02) (16, -8.37793906442921411326e+02) (0, -1.45000000000000000000e+03) (1, 5.82274118415922714576e+01) (2, 5.83035297296852661475e+01) (3, -1.45000000000000000000e+03) (4, -1.45000000000000000000e+03) (5, 5.82867482505650116309e+01) (6, -1.36417738186124870481e+03) (7, 3.69889402975757093373e+01) (8, 1.50000000000000000000e+03) (9, 1.50000000000000000000e+03) (10, 3.70011666109282941761e+01) (11, 1.50000000000000000000e+03) (12, 1.46454464929428513642e+03) (13, 5.83461470506996704444e+01) (14, 1.50000000000000000000e+03) (15, 1.46454029220965321656e+03) (16, -1.45000000000000000000e+03) (0, -1.45000000000000000000e+03) (1, 6.03755086176612536519e+01) (2, 6.02123962827541987508e+01) (3, -1.45000000000000000000e+03) (4, -1.45000000000000000000e+03) (5, 6.03280996867039362996e+01) (6, -1.45000000000000000000e+03) (7, 3.92123287209623896388e+01) (8, 1.41647412757412712381e+03) (9, 1.50000000000000000000e+03) (10, 3.93545533829682909754e+01) (11, 1.41644405902014295862e+03) (12, 1.50000000000000000000e+03) (13, 6.03438808136203448385e+01) (14, 1.50000000000000000000e+03) (15, 1.50000000000000000000e+03) (16, -1.45000000000000000000e+03) (0, -1.45000000000000000000e+03) (1, 6.10463103266640274569e+01) (2, 6.10349966349287598177e+01) (3, -1.45000000000000000000e+03) (4, -1.45000000000000000000e+03) (5, 6.11037935750766365572e+01) (6, -1.45000000000000000000e+03) (7, 7.65582407210015958299e+01) (8, 1.13609429950979370005e+03) (9, 1.50000000000000000000e+03) (10, 7.65536358449601834764e+01) (11, 1.13610020419922489054e+03) (12, 1.50000000000000000000e+03) (13, 6.10902516680045692965e+01) (14, 1.50000000000000000000e+03) (15, 1.50000000000000000000e+03) (16, -1.45000000000000000000e+03) (0, -8.83765354695404653285e+02) (1, 2.48639362131456181926e-01) (2, 1.15304632310966562181e-01) (3, -8.83675463500107412074e+02) (4, -8.83584327588463906977e+02) (5, 1.71025203739503750544e-01) (6, -1.12264881257137585635e+03) (7, -7.51856173441256032675e+02) (8, 1.17633640135483733502e+03) (9, 9.84002038730692561330e+02) (10, -7.51883501783455358236e+02) (11, 1.17622899762572637883e+03) (12, 1.22334901222670032439e+03) (13, 2.11893202935556246302e-01) (14, 9.83979617199313338460e+02) (15, 1.22336560489320709166e+03) (16, -8.83749216052378301356e+02) (0, -9.21126168579308910012e+02) (1, -3.38010509496533444462e+01) (2, -3.37439012562834790288e+01) (3, -9.21104374237804336190e+02) (4, -9.20978689767866057991e+02) (5, -3.37246721422278454838e+01) (6, -1.45000000000000000000e+03) (7, 8.70034504231185110257e+02) (8, -1.44079590191994896031e+02) (9, 1.15792655596689814956e+03) (10, 8.69936503131062181637e+02) (11, -1.43983949242089977361e+02) (12, 1.50000000000000000000e+03) (13, -3.37149038499199917851e+01) (14, 1.15777153049217099579e+03) (15, 1.50000000000000000000e+03) (16, -9.21079303451328200936e+02) (0, -1.45000000000000000000e+03) (1, 5.71455664611629998717e+01) (2, 5.70983676589302575621e+01) (3, -1.45000000000000000000e+03) (4, -1.45000000000000000000e+03) (5, 5.70845585591368234191e+01) (6, -1.45000000000000000000e+03) (7, 3.66678823774772126853e+01) (8, 1.50000000000000000000e+03) (9, 1.50000000000000000000e+03) (10, 3.66436841061430413902e+01) (11, 1.50000000000000000000e+03) (12, 1.50000000000000000000e+03) (13, 5.69953266582660234008e+01) (14, 1.50000000000000000000e+03) (15, 1.50000000000000000000e+03) (16, -1.45000000000000000000e+03) (0, -1.45000000000000000000e+03) (1, 5.94682511829550719540e+01) (2, 5.93229541101272559445e+01) (3, -1.45000000000000000000e+03) (4, -1.45000000000000000000e+03) (5, 5.93061588027294135372e+01) (6, -1.45000000000000000000e+03) (7, 3.96607925790906818975e+01) (8, 1.41598008772371213126e+03) (9, 1.50000000000000000000e+03) (10, 3.97528211075426014531e+01) (11, 1.41590361934540669608e+03) (12, 1.50000000000000000000e+03) (13, 5.94442025267298674862e+01) (14, 1.50000000000000000000e+03) (15, 1.50000000000000000000e+03) (16, -1.45000000000000000000e+03) (0, -1.45000000000000000000e+03) (1, 5.86749069304279657899e+01) (2, 5.87578052715472551881e+01) (3, -1.45000000000000000000e+03) (4, -1.45000000000000000000e+03) (5, 5.86416971669606539308e+01) (6, -1.45000000000000000000e+03) (7, 4.00466506961211194948e+01) (8, 4.52786322063559339313e+02) (9, 1.50000000000000000000e+03) (10, 3.99097997355684341869e+01) (11, 4.52732014107310817508e+02) (12, 1.50000000000000000000e+03) (13, 5.86342018977813097536e+01) (14, 1.50000000000000000000e+03) (15, 1.50000000000000000000e+03) (16, -1.45000000000000000000e+03) (0, -1.45000000000000000000e+03) (1, 5.78730845486387295296e+01) (2, 5.77565361184641403725e+01) (3, -1.45000000000000000000e+03) (4, -1.45000000000000000000e+03) (5, 5.78399455731376690437e+01) (6, -1.36393445404637782303e+03) (7, 3.97214697623951735750e+01) (8, 1.41569186133831067309e+03) (9, 1.50000000000000000000e+03) (10, 3.96967893490894141451e+01) (11, 1.41568817036538644061e+03) (12, 1.46437326259289557129e+03) (13, 5.77567795438334030678e+01) (14, 1.50000000000000000000e+03) (15, 1.46436643796537691742e+03) (16, -1.45000000000000000000e+03) (0, -1.45000000000000000000e+03) (1, 5.57078233318114683925e+01) (2, 5.56277863861704275905e+01) (3, -1.45000000000000000000e+03) (4, -1.45000000000000000000e+03) (5, 5.57245818482423231899e+01) (6, -1.45000000000000000000e+03) (7, 3.81138276206662638401e+01) (8, 9.34911663284083601866e+02) (9, 1.50000000000000000000e+03) (10, 3.81189154284408076023e+01) (11, 9.35022490849276778135e+02) (12, 1.50000000000000000000e+03) (13, 5.57548646138692305385e+01) (14, 1.50000000000000000000e+03) (15, 1.50000000000000000000e+03) (16, -1.45000000000000000000e+03) (0, -1.45000000000000000000e+03) (1, 6.01801664793726729386e+01) (2, 6.00295547658440398209e+01) (3, -1.45000000000000000000e+03) (4, -1.45000000000000000000e+03) (5, 6.00049556905266570084e+01) (6, -1.45000000000000000000e+03) (7, 3.97497340780347485634e+01) (8, 1.41601660865965573066e+03) (9, 1.50000000000000000000e+03) (10, 3.98059785705655713173e+01) (11, 1.41611755088391987556e+03) (12, 1.50000000000000000000e+03) (13, 6.01617019140955733292e+01) (14, 1.50000000000000000000e+03) (15, 1.50000000000000000000e+03) (16, -1.45000000000000000000e+03) (0, -1.45000000000000000000e+03) (1, 5.76488390358722284645e+01) (2, 5.76586705836093500466e+01) (3, -1.45000000000000000000e+03) (4, -1.45000000000000000000e+03) (5, 5.76220312359368875832e+01) (6, -1.45000000000000000000e+03) (7, 3.58467971441686827916e+01) (8, 1.50000000000000000000e+03) (9, 1.50000000000000000000e+03) (10, 3.58204431441963393468e+01) (11, 1.50000000000000000000e+03) (12, 1.50000000000000000000e+03) (13, 5.75043210255539491982e+01) (14, 1.50000000000000000000e+03) (15, 1.50000000000000000000e+03) (16, -1.45000000000000000000e+03) (0, -1.45000000000000000000e+03) (1, 5.93579367210663946253e+01) (2, 5.94012895261444242578e+01) (3, -1.45000000000000000000e+03) (4, -1.45000000000000000000e+03) (5, 5.93879162033595235926e+01) (6, -1.45000000000000000000e+03) (7, 4.34298010966469405503e+01) (8, 1.16905899383068913266e+03) (9, 1.50000000000000000000e+03) (10, 4.34480316205610392899e+01) (11, 1.16905947826743954465e+03) (12, 1.50000000000000000000e+03) (13, 5.93498894234694631677e+01) (14, 1.50000000000000000000e+03) (15, 1.50000000000000000000e+03) (16, -1.45000000000000000000e+03) (0, -1.28312735743349662698e+03) (1, 3.30818330666069082557e-01) (2, 2.62846590748075537025e-01) (3, -1.28322981474077573694e+03) (4, -1.28316091165965667642e+03) (5, 3.84910819849018148719e-01) (6, -1.36326781489111908741e+03) (7, -8.32669029739814732238e+02) (8, 1.50000000000000000000e+03) (9, 1.40554804120786502608e+03) (10, -8.32821338375228378936e+02) (11, 1.50000000000000000000e+03) (12, 1.46382067688802499106e+03) (13, 2.46230488440040279352e-01) (14, 1.40568294041059925803e+03) (15, 1.46383355750391501715e+03) (16, -1.28316089867329469598e+03) (0, -1.00788079284707873740e+03) (1, -4.05578315699993765975e+02) (2, -4.05493639888762629653e+02) (3, -1.00800563628057807364e+03) (4, -1.00788009086827605643e+03) (5, -4.05579970131217635299e+02) (6, -8.37254231015050550013e+02) (7, 1.11276149097435322233e+02) (8, -5.48543566478710786782e+00) (9, 1.15840287614460794430e+03) (10, 1.11234292175226059385e+02) (11, -5.57470565302591936074e+00) (12, 9.79900485426156706126e+02) (13, -4.05493008869289553786e+02) (14, 1.15843752534907071094e+03) (15, 9.79888000741570181162e+02) (16, -1.00798147018830150046e+03) (0, -1.28261022331304320687e+03) (1, 2.82520126354250500356e-01) (2, 2.59634900640997423604e-01) (3, -1.28267331855482825631e+03) (4, -1.28265993426478871697e+03) (5, 1.90611671459230552772e-01) (6, -1.12175501794030060410e+03) (7, -4.91294034447139381427e+02) (8, 1.41565091271118785698e+03) (9, 1.40509718225449023521e+03) (10, -4.91285732756918548603e+02) (11, 1.41577740779684449990e+03) (12, 1.22254329460093435955e+03) (13, 1.51124145638498491584e-01) (14, 1.40508877239674029624e+03) (15, 1.22241103839108404827e+03) (16, -1.28257971793896922463e+03) (0, -1.45000000000000000000e+03) (1, 5.57210611359858916103e+01) (2, 5.57154861198449538051e+01) (3, -1.45000000000000000000e+03) (4, -1.45000000000000000000e+03) (5, 5.57950561748528883754e+01) (6, -1.45000000000000000000e+03) (7, 3.81540604243388159489e+01) (8, 9.34904352658917900953e+02) (9, 1.50000000000000000000e+03) (10, 3.82853081571271403050e+01) (11, 9.34985072230478522215e+02) (12, 1.50000000000000000000e+03) (13, 5.57722913430715010463e+01) (14, 1.50000000000000000000e+03) (15, 1.50000000000000000000e+03) (16, -1.45000000000000000000e+03) (0, -1.45000000000000000000e+03) (1, 6.06122460764982378123e+01) (2, 6.06082668406107103465e+01) (3, -1.45000000000000000000e+03) (4, -1.45000000000000000000e+03) (5, 6.05807718140222704051e+01) (6, -1.45000000000000000000e+03) (7, 3.78303579470968145415e+01) (8, 1.50000000000000000000e+03) (9, 1.50000000000000000000e+03) (10, 3.79538793272232908294e+01) (11, 1.50000000000000000000e+03) (12, 1.50000000000000000000e+03) (13, 6.06340344798900758860e+01) (14, 1.50000000000000000000e+03) (15, 1.50000000000000000000e+03) (16, -1.45000000000000000000e+03) (0, -1.45000000000000000000e+03) (1, 6.01749643367602828903e+01) (2, 6.01576245856359008712e+01) (3, -1.45000000000000000000e+03) (4, -1.45000000000000000000e+03) (5, 6.01549498123004440231e+01) (6, -1.45000000000000000000e+03) (7, 3.74810948512312336334e+01) (8, 1.17499586374186606008e+03) (9, 1.50000000000000000000e+03) (10, 3.75320166564341946014e+01) (11, 1.17483866453044743139e+03) (12, 1.50000000000000000000e+03) (13, 6.00660205689146522445e+01) (14, 1.50000000000000000000e+03) (15, 1.50000000000000000000e+03) (16, -1.45000000000000000000e+03) (0, -1.45000000000000000000e+03) (1, 5.75979440906707225167e+01) (2, 5.75239271843496737802e+01) (3, -1.45000000000000000000e+03) (4, -1.45000000000000000000e+03) (5, 5.74549376019898829782e+01) (6, -8.83759848845231431369e+02) (7, 4.10469705876118453602e+01) (8, 1.41471697951416103933e+03) (9, 1.50000000000000000000e+03) (10, 4.09240994196540626149e+01) (11, 1.41462119294265835379e+03) (12, 9.84296717891160028557e+02) (13, 5.75953015336457667672e+01) (14, 1.50000000000000000000e+03) (15, 9.84255982258978860955e+02) (16, -1.45000000000000000000e+03) (0, -1.45000000000000000000e+03) (1, 6.00799660739376548690e+01) (2, 6.01216969248726371688e+01) (3, -1.45000000000000000000e+03) (4, -1.45000000000000000000e+03) (5, 6.01765421313121322555e+01) (6, -1.45000000000000000000e+03) (7, 3.74011207288857860931e+01) (8, 1.17487085303538174230e+03) (9, 1.50000000000000000000e+03) (10, 3.74056000402923984893e+01) (11, 1.17495465084039301473e+03) (12, 1.50000000000000000000e+03) (13, 6.00488383118882182998e+01) (14, 1.50000000000000000000e+03) (15, 1.50000000000000000000e+03) (16, -1.45000000000000000000e+03) (0, -1.45000000000000000000e+03) (1, 6.07073935184592414771e+01) (2, 6.05444326985592056189e+01) (3, -1.45000000000000000000e+03) (4, -1.45000000000000000000e+03) (5, 6.05697975445503402625e+01) (6, -1.45000000000000000000e+03) (7, 3.61567703570266161250e+01) (8, 1.50000000000000000000e+03) (9, 1.50000000000000000000e+03) (10, 3.62668657350380811977e+01) (11, 1.50000000000000000000e+03) (12, 1.50000000000000000000e+03) (13, 6.06528750870341468726e+01) (14, 1.50000000000000000000e+03) (15, 1.50000000000000000000e+03) (16, -1.45000000000000000000e+03) (0, -5.63201889973399147493e+02) (1, 1.15095741431466924709e+00) (2, 1.19053425769559728664e+00) (3, -5.63181649253037676317e+02) (4, -5.63203472446915611727e+02) (5, 1.15432343761674749416e+00) (6, -1.12252430745546712387e+03) (7, -9.51138831595874307823e+02) (8, 1.17575137658832090892e+03) (9, 6.85364825378568184533e+02) (10, -9.51143827932870863151e+02) (11, 1.17577802517679947414e+03) (12, 1.22475217873962492376e+03) (13, 1.19876722376100408596e+00) (14, 6.85329613264114868798e+02) (15, 1.22472835468115181357e+03) (16, -5.63152230236944660646e+02) (0, -1.45000000000000000000e+03) (1, 5.78710301039193097949e+01) (2, 5.78102120650384847522e+01) (3, -1.45000000000000000000e+03) (4, -1.45000000000000000000e+03) (5, 5.78461544183466855884e+01) (6, -1.36389461221757142084e+03) (7, 3.81703004198424409310e+01) (8, 9.34996210763963745194e+02) (9, 1.50000000000000000000e+03) (10, 3.82024890290848802010e+01) (11, 9.34990092987927482682e+02) (12, 1.46416050164188663985e+03) (13, 5.77368747261736814380e+01) (14, 1.50000000000000000000e+03) (15, 1.46404819395180265929e+03) (16, -1.45000000000000000000e+03) (0, -1.45000000000000000000e+03) (1, 5.94433588369390548678e+01) (2, 5.93673142998120368929e+01) (3, -1.45000000000000000000e+03) (4, -1.45000000000000000000e+03) (5, 5.95288082047006668063e+01) (6, -1.36485244903991906540e+03) (7, 3.74032421593591095643e+01) (8, 1.17489469716424309809e+03) (9, 1.50000000000000000000e+03) (10, 3.75478779037519814210e+01) (11, 1.17478746491396987039e+03) (12, 1.46552472763495597974e+03) (13, 5.95057323707840026827e+01) (14, 1.50000000000000000000e+03) (15, 1.46546589979516420499e+03) (16, -1.45000000000000000000e+03) (0, -1.45000000000000000000e+03) (1, 5.81757092875550512190e+01) (2, 5.82005599913309339399e+01) (3, -1.45000000000000000000e+03) (4, -1.45000000000000000000e+03) (5, 5.82248039943288091536e+01) (6, -1.36498993334080068962e+03) (7, 3.75045679991170288758e+01) (8, 1.17487794904137217600e+03) (9, 1.50000000000000000000e+03) (10, 3.74057606418653847413e+01) (11, 1.17482278258452379305e+03) (12, 1.46550879186378870145e+03) (13, 5.82313377660821203108e+01) (14, 1.50000000000000000000e+03) (15, 1.46544183728830967084e+03) (16, -1.45000000000000000000e+03) (0, -1.45000000000000000000e+03) (1, 5.72307562000053593465e+01) (2, 5.73661839618282982656e+01) (3, -1.45000000000000000000e+03) (4, -1.45000000000000000000e+03) (5, 5.72710517897206017324e+01) (6, -1.45000000000000000000e+03) (7, 3.84099984989686333847e+01) (8, 9.35002784325361290030e+02) (9, 1.50000000000000000000e+03) (10, 3.84761871249599778366e+01) (11, 9.35034952996850051932e+02) (12, 1.50000000000000000000e+03) (13, 5.73182042791443535634e+01) (14, 1.50000000000000000000e+03) (15, 1.50000000000000000000e+03) (16, -1.45000000000000000000e+03) (0, -1.45000000000000000000e+03) (1, 5.99724506399891055253e+01) (2, 6.00027838832995570328e+01) (3, -1.45000000000000000000e+03) (4, -1.45000000000000000000e+03) (5, 5.99859558231494105485e+01) (6, -1.36399798057546649943e+03) (7, 3.92771592070831019328e+01) (8, 1.50000000000000000000e+03) (9, 1.50000000000000000000e+03) (10, 3.93052046974672038004e+01) (11, 1.50000000000000000000e+03) (12, 1.46436116910599889707e+03) (13, 6.00631449259183085587e+01) (14, 1.50000000000000000000e+03) (15, 1.46438559608780565213e+03) (16, -1.45000000000000000000e+03) (0, -1.45000000000000000000e+03) (1, -1.42639999706745129515e+03) (2, -1.42639999706745129515e+03) (3, -1.45000000000000000000e+03) (4, -1.45000000000000000000e+03) (5, -1.42639999706745129515e+03) (6, -1.07823883521613106495e+03) (7, 1.96962362377673478875e+01) (8, -1.06369310197258504225e+00) (9, 1.50000000000000000000e+03) (10, 1.96127250118881555352e+01) (11, -1.03679041144276173902e+00) (12, 1.22072155030168573830e+03) (13, -1.42639999706745129515e+03) (14, 1.50000000000000000000e+03) (15, 1.22081454610921423409e+03) (16, -1.45000000000000000000e+03) (0, -1.45000000000000000000e+03) (1, 5.93269063703714323310e+01) (2, 5.93460924349723768501e+01) (3, -1.45000000000000000000e+03) (4, -1.45000000000000000000e+03) (5, 5.92414089538155508308e+01) (6, -1.45000000000000000000e+03) (7, 4.01716514672921860551e+01) (8, 1.41547349881893683232e+03) (9, 1.50000000000000000000e+03) (10, 4.03270819481300080156e+01) (11, 1.41559360556817341603e+03) (12, 1.50000000000000000000e+03) (13, 5.92746696643529844550e+01) (14, 1.50000000000000000000e+03) (15, 1.50000000000000000000e+03) (16, -1.45000000000000000000e+03) (0, -1.45000000000000000000e+03) (1, 5.97163655069958139165e+01) (2, 5.97285503206144738897e+01) (3, -1.45000000000000000000e+03) (4, -1.45000000000000000000e+03) (5, 5.96750407127033639654e+01) (6, -1.45000000000000000000e+03) (7, 3.87862777309563924177e+01) (8, 6.95063980993785776263e+02) (9, 1.50000000000000000000e+03) (10, 3.88073286349025607933e+01) (11, 6.95066584826418079501e+02) (12, 1.50000000000000000000e+03) (13, 5.97165678647648263677e+01) (14, 1.50000000000000000000e+03) (15, 1.50000000000000000000e+03) (16, -1.45000000000000000000e+03) (0, -1.02315125022859615456e+03) (1, 4.84028339684502473261e+00) (2, 4.78680227622882714655e+00) (3, -1.02323169770122808586e+03) (4, -1.02320174834163231026e+03) (5, 4.91848156154648652461e+00) (6, -1.36229749447289532327e+03) (7, 3.30111364074407802605e+01) (8, 9.38219578354945724641e+02) (9, 1.22346243464323697481e+03) (10, 3.30852067046223865532e+01) (11, 9.38119029230764454041e+02) (12, 1.46298351555886301867e+03) (13, 4.91002975702778687861e+00) (14, 1.22352296435209927949e+03) (15, 1.46293203153284821383e+03) (16, -1.02314332629026216637e+03) (0, -1.45000000000000000000e+03) (1, 5.69194366788948116209e+01) (2, 5.68616295835459766295e+01) (3, -1.45000000000000000000e+03) (4, -1.45000000000000000000e+03) (5, 5.69839264682019290831e+01) (6, -1.36390312641488958434e+03) (7, 3.81945665257130642090e+01) (8, 1.50000000000000000000e+03) (9, 1.50000000000000000000e+03) (10, 3.81747085267756958160e+01) (11, 1.50000000000000000000e+03) (12, 1.46442126775832093699e+03) (13, 5.69345379626834926512e+01) (14, 1.50000000000000000000e+03) (15, 1.46437145745308316691e+03) (16, -1.45000000000000000000e+03) (0, -1.45000000000000000000e+03) (1, 5.78988296126588863899e+01) (2, 5.78539087062343639900e+01) (3, -1.45000000000000000000e+03) (4, -1.45000000000000000000e+03) (5, 5.77531723936661762764e+01) (6, -1.36417107549686170387e+03) (7, 3.70443644544394814488e+01) (8, 1.17499303929387247081e+03) (9, 1.50000000000000000000e+03) (10, 3.71372296011360489842e+01) (11, 1.17497754176958119388e+03) (12, 1.46444408213083306691e+03) (13, 5.77405335118636173775e+01) (14, 1.50000000000000000000e+03) (15, 1.46443621918295184514e+03) (16, -1.45000000000000000000e+03) (0, -1.45000000000000000000e+03) (1, 6.03995042653818785539e+01) (2, 6.04442275153537451615e+01) (3, -1.45000000000000000000e+03) (4, -1.45000000000000000000e+03) (5, 6.04695390002866446366e+01) (6, -1.45000000000000000000e+03) (7, 3.68618211047453883111e+01) (8, 1.17548733319763823602e+03) (9, 1.50000000000000000000e+03) (10, 3.68414141880078318536e+01) (11, 1.17530830533479138467e+03) (12, 1.50000000000000000000e+03) (13, 6.05021241592307745805e+01) (14, 1.50000000000000000000e+03) (15, 1.50000000000000000000e+03) (16, -1.45000000000000000000e+03) (0, -1.45000000000000000000e+03) (1, 4.63475094659621056348e-01) (2, 4.74406139476591881543e-01) (3, -1.45000000000000000000e+03) (4, -1.45000000000000000000e+03) (5, 3.59124527795607495495e-01) (6, -1.36327391708054074115e+03) (7, -5.33789914245973250218e+02) (8, 1.50000000000000000000e+03) (9, 1.50000000000000000000e+03) (10, -5.33766792680392882176e+02) (11, 1.50000000000000000000e+03) (12, 1.46383668570468444159e+03) (13, 3.71562415285403180309e-01) (14, 1.50000000000000000000e+03) (15, 1.46386406485239285757e+03) (16, -1.45000000000000000000e+03) (0, -1.00798146579245894827e+03) (1, -4.05588371748625434066e+02) (2, -4.05505655581652320052e+02) (3, -1.00795337581465810217e+03) (4, -1.00793844131211608328e+03) (5, -4.05475803511737979079e+02) (6, -8.37325808079743524104e+02) (7, 4.66228369435875933391e+01) (8, -2.34632301486844507821e+00) (9, 1.15852606965075938206e+03) (10, 4.64899798220603983623e+01) (11, -2.27605791918749300606e+00) (12, 9.79929874755411333354e+02) (13, -4.05546623858212626601e+02) (14, 1.15853038732181994419e+03) (15, 9.80019080422787851603e+02) (16, -1.00792535302619307913e+03) (0, -1.45000000000000000000e+03) (1, 6.02348076291897456258e+01) (2, 6.02508412413814227193e+01) (3, -1.45000000000000000000e+03) (4, -1.45000000000000000000e+03) (5, 6.02092435248711268514e+01) (6, -1.45000000000000000000e+03) (7, 3.70254521907326079599e+01) (8, 1.17533031132136898123e+03) (9, 1.50000000000000000000e+03) (10, 3.69434851125832892649e+01) (11, 1.17530964230810718618e+03) (12, 1.50000000000000000000e+03) (13, 6.03754882179715792745e+01) (14, 1.50000000000000000000e+03) (15, 1.50000000000000000000e+03) (16, -1.45000000000000000000e+03) (0, -1.45000000000000000000e+03) (1, 5.81875165529460502967e+01) (2, 5.81834694944233490332e+01) (3, -1.45000000000000000000e+03) (4, -1.45000000000000000000e+03) (5, 5.82345562852830482825e+01) (6, -1.45000000000000000000e+03) (7, 3.69355641742665739002e+01) (8, 1.50000000000000000000e+03) (9, 1.50000000000000000000e+03) (10, 3.69561800127346486988e+01) (11, 1.50000000000000000000e+03) (12, 1.50000000000000000000e+03) (13, 5.83055364094585968360e+01) (14, 1.50000000000000000000e+03) (15, 1.50000000000000000000e+03) (16, -1.45000000000000000000e+03) (0, -1.45000000000000000000e+03) (1, 5.92725343130527448920e+01) (2, 5.93151281349359464912e+01) (3, -1.45000000000000000000e+03) (4, -1.45000000000000000000e+03) (5, 5.93129209600387525825e+01) (6, -1.36473917022937030197e+03) (7, 4.02196081239567959642e+01) (8, 1.41548096671468306340e+03) (9, 1.50000000000000000000e+03) (10, 4.03072619434283936357e+01) (11, 1.41547882082826185979e+03) (12, 1.46531982834741256738e+03) (13, 5.93084220610557508735e+01) (14, 1.50000000000000000000e+03) (15, 1.46523133153572462106e+03) (16, -1.45000000000000000000e+03) (0, -1.45000000000000000000e+03) (1, 5.65989210918040157594e+01) (2, 5.65767381652684093751e+01) (3, -1.45000000000000000000e+03) (4, -1.45000000000000000000e+03) (5, 5.66407363801689029970e+01) (6, -1.45000000000000000000e+03) (7, 3.92435841723436027451e+01) (8, 1.41658946875082187944e+03) (9, 1.50000000000000000000e+03) (10, 3.91969665601009040756e+01) (11, 1.41668723750086360269e+03) (12, 1.50000000000000000000e+03) (13, 5.65298454701394916810e+01) (14, 1.50000000000000000000e+03) (15, 1.50000000000000000000e+03) (16, -1.45000000000000000000e+03) (0, -1.45000000000000000000e+03) (1, -1.20755573432378832877e+03) (2, -1.20759716353051726401e+03) (3, -1.45000000000000000000e+03) (4, -1.45000000000000000000e+03) (5, -1.20773242067031924307e+03) (6, -1.45000000000000000000e+03) (7, 2.27862089258231259592e+00) (8, 5.25917491776313372753e+00) (9, 1.50000000000000000000e+03) (10, 2.31577480715312100656e+00) (11, 5.30503775266375132702e+00) (12, 1.50000000000000000000e+03) (13, -1.20758994186155860007e+03) (14, 1.50000000000000000000e+03) (15, 1.50000000000000000000e+03) (16, -1.45000000000000000000e+03) (0, -1.04260907258361339700e+03) (1, 2.66144238942018773741e-01) (2, 2.03767270379415332826e-01) (3, -1.04258065235137701166e+03) (4, -1.04269007461786031854e+03) (5, 2.64977492921701696105e-01) (6, -1.36304522679471983793e+03) (7, -6.92343540394022738838e+02) (8, 1.41679268719208857874e+03) (9, 1.16500503687770037686e+03) (10, -6.92323842206313884162e+02) (11, 1.41685996225429198603e+03) (12, 1.46353000153721836796e+03) (13, 1.95420966081968128236e-01) (14, 1.16487284700036912000e+03) (15, 1.46350834752367404690e+03) (16, -1.04255841388076305520e+03) (0, -1.45000000000000000000e+03) (1, 5.82204261299847019018e+01) (2, 5.82138834100840938390e+01) (3, -1.45000000000000000000e+03) (4, -1.45000000000000000000e+03) (5, 5.81642782901106727422e+01) (6, -1.45000000000000000000e+03) (7, 3.73342044181581869111e+01) (8, 1.17500881848936410279e+03) (9, 1.50000000000000000000e+03) (10, 3.73377587772365941987e+01) (11, 1.17514676250224442811e+03) (12, 1.50000000000000000000e+03) (13, 5.81755496886251819433e+01) (14, 1.50000000000000000000e+03) (15, 1.50000000000000000000e+03) (16, -1.45000000000000000000e+03) (0, -1.45000000000000000000e+03) (1, 5.96338255932118386227e+01) (2, 5.96392805581476181942e+01) (3, -1.45000000000000000000e+03) (4, -1.45000000000000000000e+03) (5, 5.95899028261687249142e+01) (6, -1.45000000000000000000e+03) (7, 5.77272344129703697035e+02) (8, 6.35266206706497996493e+02) (9, 1.50000000000000000000e+03) (10, 5.77301423373244460890e+02) (11, 6.35201006169054835482e+02) (12, 1.50000000000000000000e+03) (13, 5.95508427960361927944e+01) (14, 1.50000000000000000000e+03) (15, 1.50000000000000000000e+03) (16, -1.45000000000000000000e+03) (0, -1.45000000000000000000e+03) (1, 5.79079486089657109460e+01) (2, 5.77791956844638150415e+01) (3, -1.45000000000000000000e+03) (4, -1.45000000000000000000e+03) (5, 5.77324994238923352441e+01) (6, -1.45000000000000000000e+03) (7, 3.70470043734666205637e+01) (8, 1.17535783418332653127e+03) (9, 1.50000000000000000000e+03) (10, 3.70374564246293402903e+01) (11, 1.17528560982336716734e+03) (12, 1.50000000000000000000e+03) (13, 5.77976264539073270043e+01) (14, 1.50000000000000000000e+03) (15, 1.50000000000000000000e+03) (16, -1.45000000000000000000e+03) (0, -1.45000000000000000000e+03) (1, 6.04218845956549301945e+01) (2, 6.04597608663663521611e+01) (3, -1.45000000000000000000e+03) (4, -1.45000000000000000000e+03) (5, 6.04009093262776985966e+01) (6, -1.45000000000000000000e+03) (7, 3.66144746041270252590e+01) (8, 1.50000000000000000000e+03) (9, 1.50000000000000000000e+03) (10, 3.65100923052402492885e+01) (11, 1.50000000000000000000e+03) (12, 1.50000000000000000000e+03) (13, 6.05010419853553429448e+01) (14, 1.50000000000000000000e+03) (15, 1.50000000000000000000e+03) (16, -1.45000000000000000000e+03) (0, -1.45000000000000000000e+03) (1, 5.65543931364507557191e+01) (2, 5.65954986303539158143e+01) (3, -1.45000000000000000000e+03) (4, -1.45000000000000000000e+03) (5, 5.66290547862143398561e+01) (6, -1.45000000000000000000e+03) (7, 3.71008278370853759043e+01) (8, 1.17536878294562416158e+03) (9, 1.50000000000000000000e+03) (10, 3.69948487297650672190e+01) (11, 1.17537799269025640569e+03) (12, 1.50000000000000000000e+03) (13, 5.65603372804314972200e+01) (14, 1.50000000000000000000e+03) (15, 1.50000000000000000000e+03) (16, -1.45000000000000000000e+03) (0, -1.45000000000000000000e+03) (1, 5.78999390122864667774e+01) (2, 5.78823901829693738819e+01) (3, -1.45000000000000000000e+03) (4, -1.45000000000000000000e+03) (5, 5.78966205087874357105e+01) (6, -1.36395100318464255906e+03) (7, 3.81474019651497471273e+01) (8, 9.35073115015577286613e+02) (9, 1.50000000000000000000e+03) (10, 3.82361616184199917257e+01) (11, 9.35056622313510388267e+02) (12, 1.46433533837045956716e+03) (13, 5.77375493836973134876e+01) (14, 1.50000000000000000000e+03) (15, 1.46427179818000126943e+03) (16, -1.45000000000000000000e+03) (0, -1.45000000000000000000e+03) (1, 6.03500086777427355855e+01) (2, 6.02348166518428485006e+01) (3, -1.45000000000000000000e+03) (4, -1.45000000000000000000e+03) (5, 6.03856672309854189962e+01) (6, -1.45000000000000000000e+03) (7, 3.70689647288080550425e+01) (8, 1.17544558762078600012e+03) (9, 1.50000000000000000000e+03) (10, 3.69456558988448477976e+01) (11, 1.17539412529831247411e+03) (12, 1.50000000000000000000e+03) (13, 6.02189670466401736348e+01) (14, 1.50000000000000000000e+03) (15, 1.50000000000000000000e+03) (16, -1.45000000000000000000e+03) (0, -1.26414046937071748289e+03) (1, 5.70835164406088182432e+01) (2, 5.71003370576289484006e+01) (3, -1.26397626370036073240e+03) (4, -1.26409248704307742628e+03) (5, 5.71225632124331781370e+01) (6, -1.36358182412311566623e+03) (7, 3.62255531875645360174e+01) (8, 4.55557881613961455969e+02) (9, 1.46458589783850084132e+03) (10, 3.63122124327575406255e+01) (11, 4.55639783376595971731e+02) (12, 1.46406849364317690743e+03) (13, 5.71526973166254350645e+01) (14, 1.46445054115149150675e+03) (15, 1.46416941660023962868e+03) (16, -1.26401581577801175627e+03) (0, -1.45000000000000000000e+03) (1, 5.74840948919497094494e+01) (2, 5.74846300597034058910e+01) (3, -1.45000000000000000000e+03) (4, -1.45000000000000000000e+03) (5, 5.75864636639795861583e+01) (6, -6.44198915601401722597e+02) (7, 4.16113110087152548999e+01) (8, 1.41412292112393083698e+03) (9, 1.50000000000000000000e+03) (10, 4.16184821403857299060e+01) (11, 1.41424813117442431576e+03) (12, 7.44660543881360354135e+02) (13, 5.74243439252219758373e+01) (14, 1.50000000000000000000e+03) (15, 7.44646760694686236093e+02) (16, -1.45000000000000000000e+03) (0, -1.45000000000000000000e+03) (1, 5.66050763442606807985e+01) (2, 5.66281288653106571473e+01) (3, -1.45000000000000000000e+03) (4, -1.45000000000000000000e+03) (5, 5.65833416893572689332e+01) (6, -1.45000000000000000000e+03) (7, 3.69670991433020930117e+01) (8, 1.17549959584179237027e+03) (9, 1.50000000000000000000e+03) (10, 3.69131576624866823977e+01) (11, 1.17550505065771653790e+03) (12, 1.50000000000000000000e+03) (13, 5.65937477811665416993e+01) (14, 1.50000000000000000000e+03) (15, 1.50000000000000000000e+03) (16, -1.45000000000000000000e+03) (0, -1.45000000000000000000e+03) (1, 1.16559397725869349216e+01) (2, 1.16843427865315607761e+01) (3, -1.45000000000000000000e+03) (4, -1.45000000000000000000e+03) (5, 1.15879199279953173374e+01) (6, -1.36323188902934862199e+03) (7, 3.60135701447555405252e+01) (8, 9.37720321749967297364e+02) (9, 1.50000000000000000000e+03) (10, 3.60086425244638306253e+01) (11, 9.37701765207272728730e+02) (12, 1.46395204331786521834e+03) (13, 1.15550470276285341953e+01) (14, 1.50000000000000000000e+03) (15, 1.46389308046610244674e+03) (16, -1.45000000000000000000e+03) (0, -1.00802082445675296185e+03) (1, -7.83114189975670342392e+02) (2, -7.83119685747436051315e+02) (3, -1.00793792558291715977e+03) (4, -1.00788384277203840611e+03) (5, -7.83063095294645791000e+02) (6, -1.07792123770136845451e+03) (7, 8.44973839497317058544e+00) (8, -6.70725787312170473875e-01) (9, 1.15825328565986092144e+03) (10, 8.38161648487795574169e+00) (11, -5.95611380666872025635e-01) (12, 1.22049047104898090765e+03) (13, -7.83057218470386033005e+02) (14, 1.15825612324328358227e+03) (15, 1.22052806302788849280e+03) (16, -1.00789955415406984685e+03) (0, -1.45000000000000000000e+03) (1, 6.02390667759397189229e+01) (2, 6.02343285270550410360e+01) (3, -1.45000000000000000000e+03) (4, -1.45000000000000000000e+03) (5, 6.02497246265926520437e+01) (6, -1.45000000000000000000e+03) (7, 3.70562835724111891977e+01) (8, 1.17531324169104414068e+03) (9, 1.50000000000000000000e+03) (10, 3.70753529907223082773e+01) (11, 1.17541302739148454748e+03) (12, 1.50000000000000000000e+03) (13, 6.03323727809407870382e+01) (14, 1.50000000000000000000e+03) (15, 1.50000000000000000000e+03) (16, -1.45000000000000000000e+03) (0, -1.45000000000000000000e+03) (1, 5.56295138330841467678e+01) (2, 5.56801956327343390285e+01) (3, -1.45000000000000000000e+03) (4, -1.45000000000000000000e+03) (5, 5.56373032847130701839e+01) (6, -1.45000000000000000000e+03) (7, 3.69227839988824229067e+01) (8, 1.17549504149558856625e+03) (9, 1.50000000000000000000e+03) (10, 3.69081428853031496828e+01) (11, 1.17562171867343499798e+03) (12, 1.50000000000000000000e+03) (13, 5.56361600825274393856e+01) (14, 1.50000000000000000000e+03) (15, 1.50000000000000000000e+03) (16, -1.45000000000000000000e+03) (0, -8.37817992109541933132e+02) (1, -1.45000000000000000000e+03) (2, -1.45000000000000000000e+03) (3, -8.37851771145795623852e+02) (4, -8.37748436618332902981e+02) (5, -1.45000000000000000000e+03) (6, -1.07725406485202074691e+03) (7, 6.99688067699537214139e+02) (8, -3.50488299031354927138e+02) (9, 9.80353932249135482380e+02) (10, 6.99556215095088418821e+02) (11, -3.50535073120691322401e+02) (12, 1.21999112910418057254e+03) (13, -1.45000000000000000000e+03) (14, 9.80327136146611678669e+02) (15, 1.21991754757998728564e+03) (16, -8.37705426815633813931e+02) (0, -1.45000000000000000000e+03) (1, 5.76424057748418192659e+01) (2, 5.76499073174100260530e+01) (3, -1.45000000000000000000e+03) (4, -1.45000000000000000000e+03) (5, 5.77003210526209215914e+01) (6, -1.36319989567673223974e+03) (7, 3.84087277684665551192e+01) (8, 9.34739034842279124859e+02) (9, 1.50000000000000000000e+03) (10, 3.82639086429334511763e+01) (11, 9.34764059733178783063e+02) (12, 1.46373050356458929855e+03) (13, 5.76932862144213061129e+01) (14, 1.50000000000000000000e+03) (15, 1.46358448512654808837e+03) (16, -1.45000000000000000000e+03) (0, -1.45000000000000000000e+03) (1, 6.10234211944468398769e+01) (2, 6.09626297466881652554e+01) (3, -1.45000000000000000000e+03) (4, -1.45000000000000000000e+03) (5, 6.10167222880251785000e+01) (6, -1.45000000000000000000e+03) (7, 3.73577972403689813063e+01) (8, 1.17515803907681060991e+03) (9, 1.50000000000000000000e+03) (10, 3.73242593905850839064e+01) (11, 1.17508733801413131914e+03) (12, 1.50000000000000000000e+03) (13, 6.10000271164305587490e+01) (14, 1.50000000000000000000e+03) (15, 1.50000000000000000000e+03) (16, -1.45000000000000000000e+03) (0, -1.26376252002337719205e+03) (1, 5.90323658196128207010e+01) (2, 5.90250259099400835794e+01) (3, -1.26386254998365188840e+03) (4, -1.26389688031071568730e+03) (5, 5.90390452092386084360e+01) (6, -1.36343588981224320378e+03) (7, 3.61408545628963935314e+01) (8, 4.55593228810423227060e+02) (9, 1.46424502671841992196e+03) (10, 3.62384982437669265209e+01) (11, 4.55690594316416593301e+02) (12, 1.46386605708727142883e+03) (13, 5.90033621808386641305e+01) (14, 1.46439518079121125993e+03) (15, 1.46394532022306225372e+03) (16, -1.26394675749609018567e+03) (0, -1.45000000000000000000e+03) (1, 5.77639729713663143684e+01) (2, 5.77182763998970074226e+01) (3, -1.45000000000000000000e+03) (4, -1.45000000000000000000e+03) (5, 5.77335496132835430672e+01) (6, -1.36417114554722047615e+03) (7, 3.70671266896935307500e+01) (8, 1.17495786947263991351e+03) (9, 1.50000000000000000000e+03) (10, 3.70595757535012566564e+01) (11, 1.17504935057713305468e+03) (12, 1.46453465016667405507e+03) (13, 5.77175892999037785103e+01) (14, 1.50000000000000000000e+03) (15, 1.46447843108434835813e+03) (16, -1.45000000000000000000e+03) (0, -1.45000000000000000000e+03) (1, 6.03960963897922198385e+01) (2, 6.02310732566335360616e+01) (3, -1.45000000000000000000e+03) (4, -1.45000000000000000000e+03) (5, 6.03799063973643939107e+01) (6, -1.45000000000000000000e+03) (7, 3.70187974737044669382e+01) (8, 1.17528454948281364523e+03) (9, 1.50000000000000000000e+03) (10, 3.69651551709529258005e+01) (11, 1.17531832915609197698e+03) (12, 1.50000000000000000000e+03) (13, 6.02984778546312014669e+01) (14, 1.50000000000000000000e+03) (15, 1.50000000000000000000e+03) (16, -1.45000000000000000000e+03) (0, -1.45000000000000000000e+03) (1, 5.75940100959456060536e+01) (2, 5.77100970483338926442e+01) (3, -1.45000000000000000000e+03) (4, -1.45000000000000000000e+03) (5, 5.76414822786069009908e+01) (6, -1.45000000000000000000e+03) (7, 3.58464773063243100637e+01) (8, 1.50000000000000000000e+03) (9, 1.50000000000000000000e+03) (10, 3.58535785515487859243e+01) (11, 1.50000000000000000000e+03) (12, 1.50000000000000000000e+03) (13, 5.76348066477990244039e+01) (14, 1.50000000000000000000e+03) (15, 1.50000000000000000000e+03) (16, -1.45000000000000000000e+03) (0, -1.45000000000000000000e+03) (1, 6.02657083944001357168e+01) (2, 6.04000102095821063131e+01) (3, -1.45000000000000000000e+03) (4, -1.45000000000000000000e+03) (5, 6.04033870511272112935e+01) (6, -1.45000000000000000000e+03) (7, 3.81375608863642199253e+01) (8, 9.34996664752742049131e+02) (9, 1.50000000000000000000e+03) (10, 3.81075284453442080235e+01) (11, 9.35041396980663535032e+02) (12, 1.50000000000000000000e+03) (13, 6.03543283157565753072e+01) (14, 1.50000000000000000000e+03) (15, 1.50000000000000000000e+03) (16, -1.45000000000000000000e+03) (0, -1.45000000000000000000e+03) (1, 5.56970700205946371852e+01) (2, 5.56969097362542555629e+01) (3, -1.45000000000000000000e+03) (4, -1.45000000000000000000e+03) (5, 5.57018120990777418911e+01) (6, -1.45000000000000000000e+03) (7, 3.73553118160888146804e+01) (8, 1.17518570728469444475e+03) (9, 1.50000000000000000000e+03) (10, 3.73717450252696465895e+01) (11, 1.17517853201795173845e+03) (12, 1.50000000000000000000e+03) (13, 5.56800354452515051662e+01) (14, 1.50000000000000000000e+03) (15, 1.50000000000000000000e+03) (16, -1.45000000000000000000e+03) (0, -1.45000000000000000000e+03) (1, 5.61960923822676221562e+01) (2, 5.61162315012966672612e+01) (3, -1.45000000000000000000e+03) (4, -1.45000000000000000000e+03) (5, 5.61156000645910779667e+01) (6, -1.45000000000000000000e+03) (7, 3.69535095078107218569e+01) (8, 1.17549856699111774105e+03) (9, 1.50000000000000000000e+03) (10, 3.68628354278560976809e+01) (11, 1.17553937961759879727e+03) (12, 1.50000000000000000000e+03) (13, 5.62738717721854726506e+01) (14, 1.50000000000000000000e+03) (15, 1.50000000000000000000e+03) (16, -1.45000000000000000000e+03) (0, -1.45000000000000000000e+03) (1, 5.94445972030557783228e+01) (2, 5.93039687385358007532e+01) (3, -1.45000000000000000000e+03) (4, -1.45000000000000000000e+03) (5, 5.92856190314091833216e+01) (6, -1.45000000000000000000e+03) (7, 4.35347577905942557663e+01) (8, 1.16906627348006600187e+03) (9, 1.50000000000000000000e+03) (10, 4.35613512373258231491e+01) (11, 1.16902234386593931958e+03) (12, 1.50000000000000000000e+03) (13, 5.93983075802721174341e+01) (14, 1.50000000000000000000e+03) (15, 1.50000000000000000000e+03) (16, -1.45000000000000000000e+03) (0, -1.45000000000000000000e+03) (1, 5.80180962559030888315e+01) (2, 5.79379233371661541696e+01) (3, -1.45000000000000000000e+03) (4, -1.45000000000000000000e+03) (5, 5.81022041019247410532e+01) (6, -1.45000000000000000000e+03) (7, 3.84398009548041983408e+01) (8, 9.34867593203615570019e+02) (9, 1.50000000000000000000e+03) (10, 3.83854822510931654733e+01) (11, 9.34733117592465305279e+02) (12, 1.50000000000000000000e+03) (13, 5.81092578347967503305e+01) (14, 1.50000000000000000000e+03) (15, 1.50000000000000000000e+03) (16, -1.45000000000000000000e+03) (0, -1.45000000000000000000e+03) (1, 5.58735739043021482075e+01) (2, 5.57590422159099858845e+01) (3, -1.45000000000000000000e+03) (4, -1.45000000000000000000e+03) (5, 5.56838491609359067525e+01) (6, -1.45000000000000000000e+03) (7, 3.71234551460501052134e+01) (8, 1.17526585062657909475e+03) (9, 1.50000000000000000000e+03) (10, 3.71235199064966536753e+01) (11, 1.17535449546640234075e+03) (12, 1.50000000000000000000e+03) (13, 5.58740904232526105488e+01) (14, 1.50000000000000000000e+03) (15, 1.50000000000000000000e+03) (16, -1.45000000000000000000e+03) (0, -1.45000000000000000000e+03) (1, 5.76102328411257360585e+01) (2, 5.77656721061980817922e+01) (3, -1.45000000000000000000e+03) (4, -1.45000000000000000000e+03) (5, 5.77752602136647794850e+01) (6, -1.45000000000000000000e+03) (7, 3.60062489722550580495e+01) (8, 1.50000000000000000000e+03) (9, 1.50000000000000000000e+03) (10, 3.60171143625558087820e+01) (11, 1.50000000000000000000e+03) (12, 1.50000000000000000000e+03) (13, 5.77019237018144224294e+01) (14, 1.50000000000000000000e+03) (15, 1.50000000000000000000e+03) (16, -1.45000000000000000000e+03) (0, -1.45000000000000000000e+03) (1, 5.82229876172850850935e+01) (2, 5.82074904021929029341e+01) (3, -1.45000000000000000000e+03) (4, -1.45000000000000000000e+03) (5, 5.81516286310861829634e+01) (6, -1.36484818566868989365e+03) (7, 3.74576942731663109498e+01) (8, 1.17487126166099869806e+03) (9, 1.50000000000000000000e+03) (10, 3.75525651981159569459e+01) (11, 1.17476697472954356272e+03) (12, 1.46554608512656841413e+03) (13, 5.82190772396634343977e+01) (14, 1.50000000000000000000e+03) (15, 1.46544999795021567479e+03) (16, -1.45000000000000000000e+03) (0, -1.45000000000000000000e+03) (1, 6.02065885477283160299e+01) (2, 6.03727060370662371724e+01) (3, -1.45000000000000000000e+03) (4, -1.45000000000000000000e+03) (5, 6.03499498330571810811e+01) (6, -1.45000000000000000000e+03) (7, 3.71109943480249739878e+01) (8, 1.17543741221790628515e+03) (9, 1.50000000000000000000e+03) (10, 3.70279990152474738352e+01) (11, 1.17533483166312294088e+03) (12, 1.50000000000000000000e+03) (13, 6.03359594606378237813e+01) (14, 1.50000000000000000000e+03) (15, 1.50000000000000000000e+03) (16, -1.45000000000000000000e+03) (0, -1.45000000000000000000e+03) (1, 5.76063362250767312389e+01) (2, 5.75946887026272378307e+01) (3, -1.45000000000000000000e+03) (4, -1.45000000000000000000e+03) (5, 5.76003146062336526256e+01) (6, -6.44206021011500752138e+02) (7, 4.15904564536448546619e+01) (8, 1.41422042015550437100e+03) (9, 1.50000000000000000000e+03) (10, 4.16998411244984765744e+01) (11, 1.41424848387000861294e+03) (12, 7.44588425353173079202e+02) (13, 5.75282980317912659984e+01) (14, 1.50000000000000000000e+03) (15, 7.44556012704972090432e+02) (16, -1.45000000000000000000e+03) (0, -1.45000000000000000000e+03) (1, 5.83118268260492556010e+01) (2, 5.83691609883441202555e+01) (3, -1.45000000000000000000e+03) (4, -1.45000000000000000000e+03) (5, 5.83135327035321466838e+01) (6, -1.45000000000000000000e+03) (7, 8.77388858054087677374e+02) (8, 3.35059565909803325212e+02) (9, 1.50000000000000000000e+03) (10, 8.77417586423711099997e+02) (11, 3.35097177349627429521e+02) (12, 1.50000000000000000000e+03) (13, 5.84622382083667986308e+01) (14, 1.50000000000000000000e+03) (15, 1.50000000000000000000e+03) (16, -1.45000000000000000000e+03) (0, -1.45000000000000000000e+03) (1, 6.00683719497992996139e+01) (2, 6.00592148733212951583e+01) (3, -1.45000000000000000000e+03) (4, -1.45000000000000000000e+03) (5, 6.01295661163403991623e+01) (6, -1.45000000000000000000e+03) (7, 3.74887560671922130950e+01) (8, 1.17495796429239840108e+03) (9, 1.50000000000000000000e+03) (10, 3.74075473985430164703e+01) (11, 1.17488395418845743734e+03) (12, 1.50000000000000000000e+03) (13, 6.01959483605697158737e+01) (14, 1.50000000000000000000e+03) (15, 1.50000000000000000000e+03) (16, -1.45000000000000000000e+03) (0, -1.45000000000000000000e+03) (1, 4.08061416371161389538e-01) (2, 3.36766359879071275341e-01) (3, -1.45000000000000000000e+03) (4, -1.45000000000000000000e+03) (5, 3.64129149837786603161e-01) (6, -1.36336114985652693576e+03) (7, -5.33711132410238406010e+02) (8, 1.50000000000000000000e+03) (9, 1.50000000000000000000e+03) (10, -5.33640508259902617283e+02) (11, 1.50000000000000000000e+03) (12, 1.46381857261309642126e+03) (13, 3.44947779102618257152e-01) (14, 1.50000000000000000000e+03) (15, 1.46384578040490168860e+03) (16, -1.45000000000000000000e+03) (0, -1.24821842868013413863e+03) (1, -1.12249897461781938546e+03) (2, -1.12247940940062244408e+03) (3, -1.24826987019313605742e+03) (4, -1.24829954572899373488e+03) (5, -1.12243310117373903267e+03) (6, -8.37859705662615056099e+02) (7, 6.87124743514558300461e+00) (8, -3.19091648977244402019e-01) (9, 1.39868713173899573121e+03) (10, 6.71055117451449856247e+00) (11, -3.41369164358819032756e-01) (12, 9.80407363998954224371e+02) (13, -1.12246609273577769272e+03) (14, 1.39872697647172731195e+03) (15, 9.80478976155881809973e+02) (16, -1.24830358541889222579e+03) (0, -1.45000000000000000000e+03) (1, 5.66364246248693348207e+01) (2, 5.66986421584577442445e+01) (3, -1.45000000000000000000e+03) (4, -1.45000000000000000000e+03) (5, 5.66791670858354450502e+01) (6, -1.45000000000000000000e+03) (7, 3.82822079854419214939e+01) (8, 9.34880491388519999418e+02) (9, 1.50000000000000000000e+03) (10, 3.81169165345242006993e+01) (11, 9.35027019729396101866e+02) (12, 1.50000000000000000000e+03) (13, 5.66109708561987758912e+01) (14, 1.50000000000000000000e+03) (15, 1.50000000000000000000e+03) (16, -1.45000000000000000000e+03) (0, -1.45000000000000000000e+03) (1, 6.07366395207043296978e+01) (2, 6.07180488394494659588e+01) (3, -1.45000000000000000000e+03) (4, -1.45000000000000000000e+03) (5, 6.08944291086788780376e+01) (6, -1.45000000000000000000e+03) (7, 3.73499784433695225516e+01) (8, 1.17501700224874571177e+03) (9, 1.50000000000000000000e+03) (10, 3.73290985935779957572e+01) (11, 1.17508925392625883433e+03) (12, 1.50000000000000000000e+03) (13, 6.08906272115107185527e+01) (14, 1.50000000000000000000e+03) (15, 1.50000000000000000000e+03) (16, -1.45000000000000000000e+03) (0, -1.36407884059382695341e+03) (1, -4.46074940803815081836e+02) (2, -4.46205426174570277453e+02) (3, -1.36401774290485400343e+03) (4, -1.36395091519041079664e+03) (5, -4.46032803553510859729e+02) (6, -1.24742959243404425251e+03) (7, 6.63574276662431117302e+00) (8, 1.02726620723437633842e+01) (9, 1.46459850027817992668e+03) (10, 6.66223592854104396110e+00) (11, 1.03433332209419575065e+01) (12, 1.39780283676515387015e+03) (13, -4.46184481452573493243e+02) (14, 1.46458380596000461082e+03) (15, 1.39786268854568766073e+03) (16, -1.36400032002015132093e+03) (0, -1.45000000000000000000e+03) (1, 5.66343331872911335267e+01) (2, 5.65479415557772995271e+01) (3, -1.45000000000000000000e+03) (4, -1.45000000000000000000e+03) (5, 5.66197971268982769288e+01) (6, -1.45000000000000000000e+03) (7, 3.82977219866921885227e+01) (8, 9.35024155547400710020e+02) (9, 1.50000000000000000000e+03) (10, 3.82289214926173670506e+01) (11, 9.34894517199625965986e+02) (12, 1.50000000000000000000e+03) (13, 5.65406735553831936159e+01) (14, 1.50000000000000000000e+03) (15, 1.50000000000000000000e+03) (16, -1.45000000000000000000e+03) (0, -1.45000000000000000000e+03) (1, 6.02108882479884783834e+01) (2, 6.02378732078292529195e+01) (3, -1.45000000000000000000e+03) (4, -1.45000000000000000000e+03) (5, 6.04003815316178958028e+01) (6, -1.45000000000000000000e+03) (7, 3.69745385737177230112e+01) (8, 1.17542523270910101019e+03) (9, 1.50000000000000000000e+03) (10, 3.69485338197108603708e+01) (11, 1.17536333034997301183e+03) (12, 1.50000000000000000000e+03) (13, 6.02666176930585066884e+01) (14, 1.50000000000000000000e+03) (15, 1.50000000000000000000e+03) (16, -1.45000000000000000000e+03) (0, -7.84157265100317999895e+02) (1, 5.74147016990151684013e+01) (2, 5.73930684167113582816e+01) (3, -7.84024353671508833941e+02) (4, -7.84169892560380503710e+02) (5, 5.73849865931239406791e+01) (6, -6.44116957340843100610e+02) (7, 3.66470269651721736182e+01) (8, 4.55102018218866589905e+02) (9, 9.84572585465798056248e+02) (10, 3.65272704491029998053e+01) (11, 4.55154325273267033936e+02) (12, 7.44429095629255698441e+02) (13, 5.73558584737744610038e+01) (14, 9.84603971602806723240e+02) (15, 7.44512875053684638260e+02) (16, -7.84190242994266554888e+02) (0, -1.45000000000000000000e+03) (1, 6.08574408801193840191e+01) (2, 6.08264724375601417705e+01) (3, -1.45000000000000000000e+03) (4, -1.45000000000000000000e+03) (5, 6.07157905833716995403e+01) (6, -1.45000000000000000000e+03) (7, 3.69671541082305878945e+01) (8, 1.17546435333862223160e+03) (9, 1.50000000000000000000e+03) (10, 3.70419920834345788307e+01) (11, 1.17546615466549314988e+03) (12, 1.50000000000000000000e+03) (13, 6.07666746960874206707e+01) (14, 1.50000000000000000000e+03) (15, 1.50000000000000000000e+03) (16, -1.45000000000000000000e+03) (0, -1.45000000000000000000e+03) (1, 5.82319402956278793226e+01) (2, 5.82785413675816528212e+01) (3, -1.45000000000000000000e+03) (4, -1.45000000000000000000e+03) (5, 5.82308870890052787672e+01) (6, -1.45000000000000000000e+03) (7, 4.35706885880519507737e+01) (8, 1.16895505202502840802e+03) (9, 1.50000000000000000000e+03) (10, 4.35097662186910270066e+01) (11, 1.16903288047701948926e+03) (12, 1.50000000000000000000e+03) (13, 5.83142718934329025160e+01) (14, 1.50000000000000000000e+03) (15, 1.50000000000000000000e+03) (16, -1.45000000000000000000e+03) (0, -1.45000000000000000000e+03) (1, 5.77545538353921728003e+01) (2, 5.76377365249397115576e+01) (3, -1.45000000000000000000e+03) (4, -1.45000000000000000000e+03) (5, 5.77439213353397207129e+01) (6, -1.36407785424221492576e+03) (7, 3.97156785912026890628e+01) (8, 1.41584956675345006261e+03) (9, 1.50000000000000000000e+03) (10, 3.95812577306439408176e+01) (11, 1.41583808402294221196e+03) (12, 1.46444812586639682195e+03) (13, 5.75549205574395017493e+01) (14, 1.50000000000000000000e+03) (15, 1.46450528980527678868e+03) (16, -1.45000000000000000000e+03) (0, -1.00790867566148608603e+03) (1, -4.05604722882210410262e+02) (2, -4.05519079613088763381e+02) (3, -1.00797099713812440314e+03) (4, -1.00790003745834201254e+03) (5, -4.05422434734701312209e+02) (6, -8.37357041233980794459e+02) (7, 1.11144767429284897275e+02) (8, -5.61717555685263292276e+00) (9, 1.15845046377401558857e+03) (10, 1.11239601920895424314e+02) (11, -5.53389623029451982461e+00) (12, 9.79984348721771425517e+02) (13, -4.05602648908793128157e+02) (14, 1.15851744317482916813e+03) (15, 9.79866739232062286646e+02) (16, -1.00792367002944320120e+03) (0, -1.45000000000000000000e+03) (1, 5.80927108271745140655e+01) (2, 5.80382533563998634918e+01) (3, -1.45000000000000000000e+03) (4, -1.45000000000000000000e+03) (5, 5.81339002816704208954e+01) (6, -1.36356151257267447363e+03) (7, 3.93045558409437845171e+01) (8, 1.41623042676286218011e+03) (9, 1.50000000000000000000e+03) (10, 3.94372680524036596239e+01) (11, 1.41632475989745375955e+03) (12, 1.46399516549781378671e+03) (13, 5.80667084014740879638e+01) (14, 1.50000000000000000000e+03) (15, 1.46392978914902028009e+03) (16, -1.45000000000000000000e+03) (0, -1.45000000000000000000e+03) (1, 6.03824085525824187926e+01) (2, 6.05359487019135116270e+01) (3, -1.45000000000000000000e+03) (4, -1.45000000000000000000e+03) (5, 6.05103026859118102720e+01) (6, -8.83662583346843575782e+02) (7, 3.85867503848892354767e+01) (8, 6.95481638368475614698e+02) (9, 1.50000000000000000000e+03) (10, 3.86745296944898271363e+01) (11, 6.95388420366007267148e+02) (12, 9.84174082745485748092e+02) (13, 6.04391583658410667113e+01) (14, 1.50000000000000000000e+03) (15, 9.84089554858081783095e+02) (16, -1.45000000000000000000e+03) (0, -1.26363373057874673577e+03) (1, 6.03001723671853682163e+01) (2, 6.02263992960155150058e+01) (3, -1.26382444238248103829e+03) (4, -1.26373972146543496820e+03) (5, 6.03114469731748243930e+01) (6, -1.36313706365234884288e+03) (7, 3.83573033308974515876e+01) (8, 6.95800200362579175817e+02) (9, 1.46412499132206630748e+03) (10, 3.83767764663687955817e+01) (11, 6.95685097602085420476e+02) (12, 1.46370254097823817574e+03) (13, 6.02108446741998335483e+01) (14, 1.46417221375754070323e+03) (15, 1.46372068009470422112e+03) (16, -1.26367174442442887994e+03) (0, -7.84107986833590075548e+02) (1, 5.73146205400130384078e+01) (2, 5.73230028976699941268e+01) (3, -7.84101675871449515398e+02) (4, -7.84124069999593302782e+02) (5, 5.74048400078913800826e+01) (6, -6.44366744228012066742e+02) (7, 2.14885041727423029556e+01) (8, 2.12329497470399132908e+02) (9, 9.84618713008651411656e+02) (10, 2.15223656161426859512e+01) (11, 2.12238740957220784367e+02) (12, 7.44645935676495923872e+02) (13, 5.73864530925652616133e+01) (14, 9.84521412993261492375e+02) (15, 7.44790314413111104841e+02) (16, -7.84147330782997414644e+02) (0, -7.84046126473384902056e+02) (1, 6.34768040717578685417e+01) (2, 6.34065676272846019401e+01) (3, -7.84039645824271246966e+02) (4, -7.84184958588021800097e+02) (5, 6.35256150827742374076e+01) (6, -6.44070509825355429712e+02) (7, 3.60077334314970016749e+01) (8, 4.55647514161046444769e+02) (9, 9.84439845437595522526e+02) (10, 3.60828551471618652613e+01) (11, 4.55618207142080962058e+02) (12, 7.44408669288854525803e+02) (13, 6.34056947172618663444e+01) (14, 9.84505074540564692143e+02) (15, 7.44549870911638663529e+02) (16, -7.84000815797287032183e+02) (0, -1.28292947150090481045e+03) (1, 2.32217159684129648145e-01) (2, 2.40993884022661114530e-01) (3, -1.28275564120033527615e+03) (4, -1.28290894056925321820e+03) (5, 2.95596551711984900646e-01) (6, -1.36334711296268233127e+03) (7, -8.33793030838738104649e+02) (8, 1.50000000000000000000e+03) (9, 1.40534924942214502153e+03) (10, -8.33704397353599688358e+02) (11, 1.50000000000000000000e+03) (12, 1.46387570780763644507e+03) (13, 2.93141495998331336192e-01) (14, 1.40524938341562165078e+03) (15, 1.46381292702133077910e+03) (16, -1.28277052701333309415e+03) (0, -1.02349504041328555104e+03) (1, 6.22876523122947656219e+00) (2, 6.18119168714445077484e+00) (3, -1.02345695833891159054e+03) (4, -1.02339536711602931973e+03) (5, 6.23788238749664269989e+00) (6, -4.02179047720703579216e+02) (7, 3.12812832046818982690e+01) (8, 7.00661483863085550183e+02) (9, 1.22381127411289071460e+03) (10, 3.12027727116418134301e+01) (11, 7.00535659583002370709e+02) (12, 5.04180151810008737812e+02) (13, 6.23657458708446466034e+00) (14, 1.22384055357588385959e+03) (15, 5.04190082480270120868e+02) (16, -1.02352828203916078564e+03) (0, -1.45000000000000000000e+03) (1, 5.83675524006954020706e+01) (2, 5.82654423575273341385e+01) (3, -1.45000000000000000000e+03) (4, -1.45000000000000000000e+03) (5, 5.83163339878788775650e+01) (6, -1.45000000000000000000e+03) (7, 4.42897131884552734959e+01) (8, 1.41155878527464892613e+03) (9, 1.50000000000000000000e+03) (10, 4.43531175548292893041e+01) (11, 1.41159591820465948331e+03) (12, 1.50000000000000000000e+03) (13, 5.83222560297122782913e+01) (14, 1.50000000000000000000e+03) (15, 1.50000000000000000000e+03) (16, -1.45000000000000000000e+03) (0, -1.45000000000000000000e+03) (1, 6.03491806202151934713e+01) (2, 6.03178572617986361593e+01) (3, -1.45000000000000000000e+03) (4, -1.45000000000000000000e+03) (5, 6.02999791019179980367e+01) (6, -1.45000000000000000000e+03) (7, 3.81494401404967291569e+01) (8, 9.34851339136739966307e+02) (9, 1.50000000000000000000e+03) (10, 3.81376801887860281681e+01) (11, 9.35001791512151953611e+02) (12, 1.50000000000000000000e+03) (13, 6.03543266021230380147e+01) (14, 1.50000000000000000000e+03) (15, 1.50000000000000000000e+03) (16, -1.45000000000000000000e+03) (0, -8.83653136904026155207e+02) (1, 1.34269390927672427338e-01) (2, 1.59452267663598074021e-01) (3, -8.83667331400002126429e+02) (4, -8.83708110103989724848e+02) (5, 1.99589171187996905488e-01) (6, -1.12275533541461754794e+03) (7, -7.51785411231661782949e+02) (8, 1.17623671925099483815e+03) (9, 9.84044899894308741750e+02) (10, -7.51716057591582284658e+02) (11, 1.17626340338991872159e+03) (12, 1.22320676796221687255e+03) (13, 1.53964382337450994553e-01) (14, 9.83988872295629676046e+02) (15, 1.22331604788535787520e+03) (16, -8.83653833279992227290e+02) (0, -8.83644951845193986628e+02) (1, 1.00324713366151077598e-01) (2, 2.51321972088933254241e-01) (3, -8.83613294492150430415e+02) (4, -8.83709838549281244013e+02) (5, 1.49606012480378164353e-01) (6, -1.12282228263637352939e+03) (7, -7.51767419465328202932e+02) (8, 1.17622438468070618001e+03) (9, 9.83937828606378730001e+02) (10, -7.51863127366150365560e+02) (11, 1.17626176368849269238e+03) (12, 1.22324823251822544989e+03) (13, 2.48690233307004016083e-01) (14, 9.84046298815321620168e+02) (15, 1.22328340356880380568e+03) (16, -8.83706772627915029261e+02) (0, -1.45000000000000000000e+03) (1, 6.10227890720535128821e+01) (2, 6.08780118634868472327e+01) (3, -1.45000000000000000000e+03) (4, -1.45000000000000000000e+03) (5, 6.09300886167157500495e+01) (6, -1.45000000000000000000e+03) (7, 4.33763692751137455161e+01) (8, 1.16925115819533129979e+03) (9, 1.50000000000000000000e+03) (10, 4.34089977815357883628e+01) (11, 1.16923861459155341436e+03) (12, 1.50000000000000000000e+03) (13, 6.09585700666476100196e+01) (14, 1.50000000000000000000e+03) (15, 1.50000000000000000000e+03) (16, -1.45000000000000000000e+03) (0, -1.45000000000000000000e+03) (1, 5.94979356950644984181e+01) (2, 5.95722969374184145863e+01) (3, -1.45000000000000000000e+03) (4, -1.45000000000000000000e+03) (5, 5.95882499715809359486e+01) (6, -1.45000000000000000000e+03) (7, 4.16710578104029252700e+02) (8, 1.03930415199304115959e+03) (9, 1.50000000000000000000e+03) (10, 4.16546811369727208785e+02) (11, 1.03927651268595946021e+03) (12, 1.50000000000000000000e+03) (13, 5.95930770537380709584e+01) (14, 1.50000000000000000000e+03) (15, 1.50000000000000000000e+03) (16, -1.45000000000000000000e+03) (17, 1.50000000000000000000e+03) (18, 1.50000000000000000000e+03) (19, 1.50000000000000000000e+03) (20, 1.50000000000000000000e+03) (21, 1.50000000000000000000e+03) (22, 1.50000000000000000000e+03) (23, 1.50000000000000000000e+03) (24, 1.50000000000000000000e+03) (25, 1.50000000000000000000e+03) (26, 1.50000000000000000000e+03) (27, 1.50000000000000000000e+03) (28, 1.50000000000000000000e+03) (29, 1.50000000000000000000e+03) (30, 1.50000000000000000000e+03) (31, 1.50000000000000000000e+03) (32, 1.50000000000000000000e+03) (33, 1.50000000000000000000e+03) (34, 1.50000000000000000000e+03) (35, 1.50000000000000000000e+03) (36, 1.50000000000000000000e+03) (37, 1.50000000000000000000e+03) (38, 1.50000000000000000000e+03) (39, 1.50000000000000000000e+03) (40, 1.50000000000000000000e+03) (41, 1.50000000000000000000e+03) (42, 1.50000000000000000000e+03) (43, 1.50000000000000000000e+03) (44, 1.50000000000000000000e+03) (45, 1.50000000000000000000e+03) (46, 1.50000000000000000000e+03) (47, 1.50000000000000000000e+03) (48, 1.50000000000000000000e+03) (49, 1.50000000000000000000e+03) (50, 1.50000000000000000000e+03) (51, 1.50000000000000000000e+03) (52, 1.50000000000000000000e+03) (53, 1.50000000000000000000e+03) (54, 1.50000000000000000000e+03) (55, 1.50000000000000000000e+03) (56, 1.50000000000000000000e+03) (57, 1.50000000000000000000e+03) (58, 1.50000000000000000000e+03) (59, 1.50000000000000000000e+03) (60, 1.50000000000000000000e+03) (61, 1.50000000000000000000e+03) (62, 1.50000000000000000000e+03) (63, 1.50000000000000000000e+03) (64, 1.50000000000000000000e+03) (65, 1.50000000000000000000e+03) (66, 1.50000000000000000000e+03) (67, 1.50000000000000000000e+03) (68, 1.50000000000000000000e+03) (69, 1.50000000000000000000e+03) (70, 1.50000000000000000000e+03) (71, 1.50000000000000000000e+03) (72, 1.50000000000000000000e+03) (73, 1.50000000000000000000e+03) (74, 1.50000000000000000000e+03) (75, 1.50000000000000000000e+03) (76, 1.50000000000000000000e+03) (77, 1.50000000000000000000e+03) (78, 1.50000000000000000000e+03) (79, 1.50000000000000000000e+03) (80, 1.50000000000000000000e+03) (81, 1.50000000000000000000e+03) (82, 1.50000000000000000000e+03) (83, 1.50000000000000000000e+03) (84, 1.50000000000000000000e+03) (85, 1.50000000000000000000e+03) (86, 1.50000000000000000000e+03) (87, 1.50000000000000000000e+03) (88, 1.50000000000000000000e+03) (89, 1.50000000000000000000e+03) (90, 1.50000000000000000000e+03) (91, 1.50000000000000000000e+03) (92, 1.50000000000000000000e+03) (93, 1.50000000000000000000e+03) (94, 1.50000000000000000000e+03) (95, 1.50000000000000000000e+03) (96, 1.50000000000000000000e+03) (97, 1.50000000000000000000e+03) (98, 1.50000000000000000000e+03) (99, 1.50000000000000000000e+03) (100, 1.50000000000000000000e+03) (101, 1.50000000000000000000e+03) (102, 1.50000000000000000000e+03) (103, 1.50000000000000000000e+03) (104, 1.50000000000000000000e+03) (105, 1.50000000000000000000e+03) (106, 1.50000000000000000000e+03) (107, 1.50000000000000000000e+03) (108, 1.50000000000000000000e+03) (109, 1.50000000000000000000e+03) (110, 1.50000000000000000000e+03) (111, 1.50000000000000000000e+03) (112, 1.50000000000000000000e+03) (113, 1.50000000000000000000e+03) (114, 1.50000000000000000000e+03) (115, 1.50000000000000000000e+03) (116, 1.50000000000000000000e+03) (117, 1.50000000000000000000e+03) (118, 1.50000000000000000000e+03) (119, 1.50000000000000000000e+03) (120, 1.50000000000000000000e+03) (121, 1.50000000000000000000e+03) (122, 1.50000000000000000000e+03) (123, 1.50000000000000000000e+03) (124, 1.50000000000000000000e+03) (125, 1.50000000000000000000e+03) (126, 1.50000000000000000000e+03) (127, 1.50000000000000000000e+03) (128, 1.50000000000000000000e+03) (129, 1.50000000000000000000e+03) (130, 1.50000000000000000000e+03) (131, 1.50000000000000000000e+03) (132, 1.50000000000000000000e+03) (133, 1.50000000000000000000e+03) (134, 1.50000000000000000000e+03) (135, 1.50000000000000000000e+03) (136, 1.50000000000000000000e+03) (137, 1.50000000000000000000e+03) (138, 1.50000000000000000000e+03) (139, 1.50000000000000000000e+03) (140, 1.50000000000000000000e+03) (141, 1.50000000000000000000e+03) (142, 1.50000000000000000000e+03) (143, 1.50000000000000000000e+03) (144, 1.50000000000000000000e+03) (145, 1.50000000000000000000e+03) (17, 9.23454250930405692088e+02) (18, 1.50000000000000000000e+03) (19, 1.50000000000000000000e+03) (20, 1.50000000000000000000e+03) (21, 1.50000000000000000000e+03) (22, 1.50000000000000000000e+03) (23, 1.50000000000000000000e+03) (24, 5.23443581892705992686e+02) (25, 1.50000000000000000000e+03) (26, 1.50000000000000000000e+03) (27, 1.50000000000000000000e+03) (28, 1.50000000000000000000e+03) (29, 1.50000000000000000000e+03) (30, 1.50000000000000000000e+03) (31, 1.50000000000000000000e+03) (32, 1.50000000000000000000e+03) (33, 1.50000000000000000000e+03) (34, 6.22735510586584950943e+02) (35, 1.50000000000000000000e+03) (36, 1.50000000000000000000e+03) (37, 9.22923650472248937149e+02) (38, 1.50000000000000000000e+03) (39, 1.50000000000000000000e+03) (40, 1.50000000000000000000e+03) (41, 1.50000000000000000000e+03) (42, 1.50000000000000000000e+03) (43, 1.22859468637789632339e+02) (44, 1.50000000000000000000e+03) (45, 1.50000000000000000000e+03) (46, 1.50000000000000000000e+03) (47, 7.22761657974506761093e+02) (48, 1.22772759492333079834e+02) (49, 1.50000000000000000000e+03) (50, 1.50000000000000000000e+03) (51, 1.50000000000000000000e+03) (52, 1.50000000000000000000e+03) (53, 1.50000000000000000000e+03) (54, 1.50000000000000000000e+03) (55, 1.50000000000000000000e+03) (56, 1.50000000000000000000e+03) (57, 1.02286824154743089821e+03) (58, 1.02292267167457475807e+03) (59, 1.12272988474258318092e+03) (60, 1.50000000000000000000e+03) (61, 1.50000000000000000000e+03) (62, 1.50000000000000000000e+03) (63, 1.50000000000000000000e+03) (64, 1.50000000000000000000e+03) (65, 1.50000000000000000000e+03) (66, 4.22793334490443612594e+02) (67, 1.50000000000000000000e+03) (68, 1.50000000000000000000e+03) (69, 1.50000000000000000000e+03) (70, 1.50000000000000000000e+03) (71, 1.50000000000000000000e+03) (72, 9.23443382500268057811e+02) (73, 1.50000000000000000000e+03) (74, 1.50000000000000000000e+03) (75, 1.50000000000000000000e+03) (76, 1.50000000000000000000e+03) (77, 1.50000000000000000000e+03) (78, 1.50000000000000000000e+03) (79, 1.42284193286934032585e+03) (80, 1.02275285654404297020e+03) (81, 1.50000000000000000000e+03) (82, 1.50000000000000000000e+03) (83, 1.50000000000000000000e+03) (84, 1.50000000000000000000e+03) (85, 1.50000000000000000000e+03) (86, 9.22838275558139230270e+02) (87, 1.50000000000000000000e+03) (88, 1.50000000000000000000e+03) (89, 1.50000000000000000000e+03) (90, 1.50000000000000000000e+03) (91, 1.50000000000000000000e+03) (92, 1.50000000000000000000e+03) (93, 1.50000000000000000000e+03) (94, 1.50000000000000000000e+03) (95, 1.50000000000000000000e+03) (96, 1.50000000000000000000e+03) (97, 1.50000000000000000000e+03) (98, 9.22822653612877275009e+02) (99, 1.50000000000000000000e+03) (100, 1.50000000000000000000e+03) (101, 6.22830544828261281509e+02) (102, 1.50000000000000000000e+03) (103, 1.50000000000000000000e+03) (104, 1.50000000000000000000e+03) (105, 1.50000000000000000000e+03) (106, 1.50000000000000000000e+03) (107, 1.50000000000000000000e+03) (108, 1.50000000000000000000e+03) (109, 1.50000000000000000000e+03) (110, 1.50000000000000000000e+03) (111, 1.50000000000000000000e+03) (112, 1.50000000000000000000e+03) (113, 1.50000000000000000000e+03) (114, 1.50000000000000000000e+03) (115, 1.50000000000000000000e+03) (116, 1.50000000000000000000e+03) (117, 1.50000000000000000000e+03) (118, 1.32274791000672712471e+03) (119, 1.50000000000000000000e+03) (120, 1.42280103938915863182e+03) (121, 9.22856090991581822891e+02) (122, 1.50000000000000000000e+03) (123, 1.50000000000000000000e+03) (124, 1.32281041943916216042e+03) (125, 1.50000000000000000000e+03) (126, 1.50000000000000000000e+03) (127, 1.50000000000000000000e+03) (128, 1.50000000000000000000e+03) (129, 1.50000000000000000000e+03) (130, 1.50000000000000000000e+03) (131, 1.02290302239247694160e+03) (132, 1.50000000000000000000e+03) (133, 1.50000000000000000000e+03) (134, 1.50000000000000000000e+03) (135, 1.50000000000000000000e+03) (136, 1.50000000000000000000e+03) (137, 1.02272793432959451820e+03) (138, 1.50000000000000000000e+03) (139, 1.50000000000000000000e+03) (140, 1.50000000000000000000e+03) (141, 7.22743404633189584274e+02) (142, 7.22788726604367639084e+02) (143, 1.50000000000000000000e+03) (144, 1.50000000000000000000e+03) (145, -7.71805961217628464510e+01) (17, 1.50000000000000000000e+03) (18, 1.50000000000000000000e+03) (19, 1.50000000000000000000e+03) (20, 1.50000000000000000000e+03) (21, 1.50000000000000000000e+03) (22, 1.50000000000000000000e+03) (23, 1.50000000000000000000e+03) (24, 1.50000000000000000000e+03) (25, 1.50000000000000000000e+03) (26, 1.50000000000000000000e+03) (27, 1.50000000000000000000e+03) (28, 1.50000000000000000000e+03) (29, 1.50000000000000000000e+03) (30, 1.50000000000000000000e+03) (31, 1.50000000000000000000e+03) (32, 1.50000000000000000000e+03) (33, 1.50000000000000000000e+03) (34, 1.50000000000000000000e+03) (35, 1.50000000000000000000e+03) (36, 1.50000000000000000000e+03) (37, 1.50000000000000000000e+03) (38, 1.50000000000000000000e+03) (39, 1.50000000000000000000e+03) (40, 1.50000000000000000000e+03) (41, 1.50000000000000000000e+03) (42, 1.50000000000000000000e+03) (43, 1.50000000000000000000e+03) (44, 1.50000000000000000000e+03) (45, 1.50000000000000000000e+03) (46, 1.50000000000000000000e+03) (47, 7.23890794363935583533e+02) (48, 1.50000000000000000000e+03) (49, 1.50000000000000000000e+03) (50, 1.50000000000000000000e+03) (51, 1.50000000000000000000e+03) (52, 1.50000000000000000000e+03) (53, 1.50000000000000000000e+03) (54, 1.50000000000000000000e+03) (55, 1.50000000000000000000e+03) (56, 1.50000000000000000000e+03) (57, 1.02635334655684619065e+03) (58, 1.50000000000000000000e+03) (59, 1.12520498675514295428e+03) (60, 1.50000000000000000000e+03) (61, 1.50000000000000000000e+03) (62, 1.50000000000000000000e+03) (63, 1.50000000000000000000e+03) (64, 1.50000000000000000000e+03) (65, 1.50000000000000000000e+03) (66, 4.23874938068111589473e+02) (67, 1.50000000000000000000e+03) (68, 1.50000000000000000000e+03) (69, 1.50000000000000000000e+03) (70, 1.50000000000000000000e+03) (71, 1.50000000000000000000e+03) (72, 1.50000000000000000000e+03) (73, 1.50000000000000000000e+03) (74, 1.50000000000000000000e+03) (75, 1.50000000000000000000e+03) (76, 1.50000000000000000000e+03) (77, 1.50000000000000000000e+03) (78, 1.50000000000000000000e+03) (79, 1.42628798062396435853e+03) (80, 1.50000000000000000000e+03) (81, 1.50000000000000000000e+03) (82, 1.50000000000000000000e+03) (83, 1.50000000000000000000e+03) (84, 1.50000000000000000000e+03) (85, 1.50000000000000000000e+03) (86, 9.23852539335508936347e+02) (87, 1.50000000000000000000e+03) (88, 1.50000000000000000000e+03) (89, 1.50000000000000000000e+03) (90, 1.50000000000000000000e+03) (91, 1.50000000000000000000e+03) (92, 1.50000000000000000000e+03) (93, 1.50000000000000000000e+03) (94, 1.50000000000000000000e+03) (95, 1.50000000000000000000e+03) (96, 1.50000000000000000000e+03) (97, 1.50000000000000000000e+03) (98, 1.50000000000000000000e+03) (99, 1.50000000000000000000e+03) (100, 1.50000000000000000000e+03) (101, 1.50000000000000000000e+03) (102, 1.50000000000000000000e+03) (103, 1.50000000000000000000e+03) (104, 1.50000000000000000000e+03) (105, 1.50000000000000000000e+03) (106, 1.50000000000000000000e+03) (107, 1.50000000000000000000e+03) (108, 1.50000000000000000000e+03) (109, 1.50000000000000000000e+03) (110, 1.50000000000000000000e+03) (111, 1.50000000000000000000e+03) (112, 1.50000000000000000000e+03) (113, 1.50000000000000000000e+03) (114, 1.50000000000000000000e+03) (115, 1.50000000000000000000e+03) (116, 1.50000000000000000000e+03) (117, 1.50000000000000000000e+03) (118, 1.50000000000000000000e+03) (119, 1.50000000000000000000e+03) (120, 1.42628254232597737428e+03) (121, 1.50000000000000000000e+03) (122, 1.50000000000000000000e+03) (123, 1.50000000000000000000e+03) (124, 1.50000000000000000000e+03) (125, 1.50000000000000000000e+03) (126, 1.50000000000000000000e+03) (127, 1.50000000000000000000e+03) (128, 1.50000000000000000000e+03) (129, 1.50000000000000000000e+03) (130, 1.50000000000000000000e+03) (131, 1.50000000000000000000e+03) (132, 1.50000000000000000000e+03) (133, 1.50000000000000000000e+03) (134, 1.50000000000000000000e+03) (135, 1.50000000000000000000e+03) (136, 1.50000000000000000000e+03) (137, 1.02632213223395137902e+03) (138, 1.50000000000000000000e+03) (139, 1.50000000000000000000e+03) (140, 1.50000000000000000000e+03) (141, 7.23928812821527117194e+02) (142, 7.23951712799389952124e+02) (143, 1.50000000000000000000e+03) (144, 1.50000000000000000000e+03) (145, 9.44406009968118453912e+00) (17, 9.74769564823259543118e+02) (18, 1.50000000000000000000e+03) (19, 1.50000000000000000000e+03) (20, 1.50000000000000000000e+03) (21, 1.50000000000000000000e+03) (22, 1.50000000000000000000e+03) (23, 1.50000000000000000000e+03) (24, 5.75637534178910300398e+02) (25, 1.50000000000000000000e+03) (26, 1.50000000000000000000e+03) (27, 1.50000000000000000000e+03) (28, 1.50000000000000000000e+03) (29, 1.50000000000000000000e+03) (30, 1.50000000000000000000e+03) (31, 1.50000000000000000000e+03) (32, 1.50000000000000000000e+03) (33, 1.50000000000000000000e+03) (34, 5.74072392821360153903e+02) (35, 1.50000000000000000000e+03) (36, 1.50000000000000000000e+03) (37, 8.75701938413200423383e+02) (38, 1.50000000000000000000e+03) (39, 1.50000000000000000000e+03) (40, 1.50000000000000000000e+03) (41, 1.50000000000000000000e+03) (42, 1.50000000000000000000e+03) (43, 7.56439715699529813264e+01) (44, 1.50000000000000000000e+03) (45, 1.50000000000000000000e+03) (46, 1.50000000000000000000e+03) (47, 6.75643256865558669233e+02) (48, 1.50000000000000000000e+03) (49, 1.50000000000000000000e+03) (50, 1.50000000000000000000e+03) (51, 1.50000000000000000000e+03) (52, 1.50000000000000000000e+03) (53, 1.50000000000000000000e+03) (54, 1.50000000000000000000e+03) (55, 1.50000000000000000000e+03) (56, 1.50000000000000000000e+03) (57, 1.07565287278604273524e+03) (58, 1.07566517493512992587e+03) (59, 1.17476964535658521527e+03) (60, 1.50000000000000000000e+03) (61, 1.50000000000000000000e+03) (62, 1.50000000000000000000e+03) (63, 1.50000000000000000000e+03) (64, 1.50000000000000000000e+03) (65, 1.50000000000000000000e+03) (66, 4.75646127872285887861e+02) (67, 1.50000000000000000000e+03) (68, 1.50000000000000000000e+03) (69, 1.50000000000000000000e+03) (70, 1.50000000000000000000e+03) (71, 1.50000000000000000000e+03) (72, 9.74913343952049444852e+02) (73, 1.50000000000000000000e+03) (74, 1.50000000000000000000e+03) (75, 1.50000000000000000000e+03) (76, 1.50000000000000000000e+03) (77, 1.50000000000000000000e+03) (78, 1.50000000000000000000e+03) (79, 1.37569523428392176356e+03) (80, 1.07563486386102204051e+03) (81, 1.50000000000000000000e+03) (82, 1.50000000000000000000e+03) (83, 1.50000000000000000000e+03) (84, 1.50000000000000000000e+03) (85, 1.47412289091204456781e+03) (86, 9.75654820457217738294e+02) (87, 1.50000000000000000000e+03) (88, 1.50000000000000000000e+03) (89, 1.50000000000000000000e+03) (90, 1.50000000000000000000e+03) (91, 1.50000000000000000000e+03) (92, 1.50000000000000000000e+03) (93, 1.50000000000000000000e+03) (94, 1.50000000000000000000e+03) (95, 1.50000000000000000000e+03) (96, 1.50000000000000000000e+03) (97, 1.50000000000000000000e+03) (98, 9.75767274230835482740e+02) (99, 1.50000000000000000000e+03) (100, 1.50000000000000000000e+03) (101, 6.75735422946629569196e+02) (102, 1.50000000000000000000e+03) (103, 1.50000000000000000000e+03) (104, 1.50000000000000000000e+03) (105, 1.50000000000000000000e+03) (106, 1.50000000000000000000e+03) (107, 1.50000000000000000000e+03) (108, 1.50000000000000000000e+03) (109, 1.50000000000000000000e+03) (110, 1.50000000000000000000e+03) (111, 1.50000000000000000000e+03) (112, 1.50000000000000000000e+03) (113, 1.50000000000000000000e+03) (114, 1.50000000000000000000e+03) (115, 1.50000000000000000000e+03) (116, 1.50000000000000000000e+03) (117, 1.50000000000000000000e+03) (118, 1.50000000000000000000e+03) (119, 1.50000000000000000000e+03) (120, 1.37574497769039635386e+03) (121, 8.75672395479050919676e+02) (122, 1.50000000000000000000e+03) (123, 1.50000000000000000000e+03) (124, 1.27565749984246258464e+03) (125, 1.50000000000000000000e+03) (126, 1.50000000000000000000e+03) (127, 1.50000000000000000000e+03) (128, 1.50000000000000000000e+03) (129, 1.50000000000000000000e+03) (130, 1.50000000000000000000e+03) (131, 1.07574319418531422343e+03) (132, 1.50000000000000000000e+03) (133, 1.50000000000000000000e+03) (134, 1.50000000000000000000e+03) (135, 1.50000000000000000000e+03) (136, 1.50000000000000000000e+03) (137, 1.07571114429843191829e+03) (138, 1.50000000000000000000e+03) (139, 1.50000000000000000000e+03) (140, 1.50000000000000000000e+03) (141, 6.75730302751181170606e+02) (142, 6.75630696669337794447e+02) (143, 1.50000000000000000000e+03) (144, 1.50000000000000000000e+03) (145, -4.40433734645945804687e+01) (17, 1.50000000000000000000e+03) (18, 1.50000000000000000000e+03) (19, 1.50000000000000000000e+03) (20, 1.50000000000000000000e+03) (21, 1.50000000000000000000e+03) (22, 1.50000000000000000000e+03) (23, 1.50000000000000000000e+03) (24, 1.50000000000000000000e+03) (25, 1.50000000000000000000e+03) (26, 1.50000000000000000000e+03) (27, 1.50000000000000000000e+03) (28, 1.50000000000000000000e+03) (29, 1.50000000000000000000e+03) (30, 1.50000000000000000000e+03) (31, 1.50000000000000000000e+03) (32, 1.50000000000000000000e+03) (33, 1.50000000000000000000e+03) (34, 1.50000000000000000000e+03) (35, 1.50000000000000000000e+03) (36, 1.50000000000000000000e+03) (37, 1.50000000000000000000e+03) (38, 1.50000000000000000000e+03) (39, 1.50000000000000000000e+03) (40, 1.50000000000000000000e+03) (41, 1.50000000000000000000e+03) (42, 1.50000000000000000000e+03) (43, 1.50000000000000000000e+03) (44, 1.50000000000000000000e+03) (45, 1.50000000000000000000e+03) (46, 1.50000000000000000000e+03) (47, 1.50000000000000000000e+03) (48, 1.50000000000000000000e+03) (49, 1.50000000000000000000e+03) (50, 1.50000000000000000000e+03) (51, 1.50000000000000000000e+03) (52, 1.50000000000000000000e+03) (53, 1.50000000000000000000e+03) (54, 1.50000000000000000000e+03) (55, 1.50000000000000000000e+03) (56, 1.50000000000000000000e+03) (57, 1.50000000000000000000e+03) (58, 1.50000000000000000000e+03) (59, 1.50000000000000000000e+03) (60, 1.50000000000000000000e+03) (61, 1.50000000000000000000e+03) (62, 1.50000000000000000000e+03) (63, 1.50000000000000000000e+03) (64, 1.50000000000000000000e+03) (65, 1.50000000000000000000e+03) (66, 1.50000000000000000000e+03) (67, 1.50000000000000000000e+03) (68, 1.50000000000000000000e+03) (69, 1.50000000000000000000e+03) (70, 1.50000000000000000000e+03) (71, 1.50000000000000000000e+03) (72, 1.50000000000000000000e+03) (73, 1.50000000000000000000e+03) (74, 1.50000000000000000000e+03) (75, 1.50000000000000000000e+03) (76, 1.50000000000000000000e+03) (77, 1.50000000000000000000e+03) (78, 1.50000000000000000000e+03) (79, 1.50000000000000000000e+03) (80, 1.50000000000000000000e+03) (81, 1.50000000000000000000e+03) (82, 1.50000000000000000000e+03) (83, 1.50000000000000000000e+03) (84, 1.50000000000000000000e+03) (85, 1.50000000000000000000e+03) (86, 1.50000000000000000000e+03) (87, 1.50000000000000000000e+03) (88, 1.50000000000000000000e+03) (89, 1.50000000000000000000e+03) (90, 1.50000000000000000000e+03) (91, 1.50000000000000000000e+03) (92, 1.50000000000000000000e+03) (93, 1.50000000000000000000e+03) (94, 1.50000000000000000000e+03) (95, 1.50000000000000000000e+03) (96, 1.50000000000000000000e+03) (97, 1.50000000000000000000e+03) (98, 1.50000000000000000000e+03) (99, 1.50000000000000000000e+03) (100, 1.50000000000000000000e+03) (101, 1.50000000000000000000e+03) (102, 1.50000000000000000000e+03) (103, 1.50000000000000000000e+03) (104, 1.50000000000000000000e+03) (105, 1.50000000000000000000e+03) (106, 1.50000000000000000000e+03) (107, 1.50000000000000000000e+03) (108, 1.50000000000000000000e+03) (109, 1.50000000000000000000e+03) (110, 1.50000000000000000000e+03) (111, 1.50000000000000000000e+03) (112, 1.50000000000000000000e+03) (113, 1.50000000000000000000e+03) (114, 1.50000000000000000000e+03) (115, 1.50000000000000000000e+03) (116, 1.50000000000000000000e+03) (117, 1.50000000000000000000e+03) (118, 1.50000000000000000000e+03) (119, 1.50000000000000000000e+03) (120, 1.50000000000000000000e+03) (121, 1.50000000000000000000e+03) (122, 1.50000000000000000000e+03) (123, 1.50000000000000000000e+03) (124, 1.50000000000000000000e+03) (125, 1.50000000000000000000e+03) (126, 1.50000000000000000000e+03) (127, 1.50000000000000000000e+03) (128, 1.50000000000000000000e+03) (129, 1.50000000000000000000e+03) (130, 1.50000000000000000000e+03) (131, 1.50000000000000000000e+03) (132, 1.50000000000000000000e+03) (133, 1.50000000000000000000e+03) (134, 1.50000000000000000000e+03) (135, 1.50000000000000000000e+03) (136, 1.50000000000000000000e+03) (137, 1.50000000000000000000e+03) (138, 1.50000000000000000000e+03) (139, 1.50000000000000000000e+03) (140, 1.50000000000000000000e+03) (141, 1.50000000000000000000e+03) (142, 1.50000000000000000000e+03) (143, 1.50000000000000000000e+03) (144, 1.50000000000000000000e+03) (145, 1.50000000000000000000e+03) (17, 9.23378968773938254344e+02) (18, 1.50000000000000000000e+03) (19, 1.50000000000000000000e+03) (20, 1.50000000000000000000e+03) (21, 1.50000000000000000000e+03) 