FANN_FLO_2.1
num_layers=3
learning_rate=0.700000
connection_rate=0.500000
network_type=0
learning_momentum=0.000000
training_algorithm=2
train_error_function=1
train_stop_function=0
cascade_output_change_fraction=0.010000
quickprop_decay=-0.000100
quickprop_mu=1.750000
rprop_increase_factor=1.200000
rprop_decrease_factor=0.500000
rprop_delta_min=0.000000
rprop_delta_max=50.000000
rprop_delta_zero=0.100000
cascade_output_stagnation_epochs=12
cascade_candidate_change_fraction=0.010000
cascade_candidate_stagnation_epochs=12
cascade_max_out_epochs=150
cascade_max_cand_epochs=150
cascade_num_candidate_groups=2
bit_fail_limit=3.49999999999999977796e-01
cascade_candidate_limit=1.00000000000000000000e+03
cascade_weight_multiplier=4.00000000000000022204e-01
cascade_activation_functions_count=10
cascade_activation_functions=3 5 7 8 10 11 14 15 16 17 
cascade_activation_steepnesses_count=4
cascade_activation_steepnesses=2.50000000000000000000e-01 5.00000000000000000000e-01 7.50000000000000000000e-01 1.00000000000000000000e+00 
layer_sizes=17 17 17 
scale_included=0
neurons (num_inputs, activation_function, activation_steepness)=(0, 0, 0.00000000000000000000e+00) (0, 0, 0.00000000000000000000e+00) (0, 0, 0.00000000000000000000e+00) (0, 0, 0.00000000000000000000e+00) (0, 0, 0.00000000000000000000e+00) (0, 0, 0.00000000000000000000e+00) (0, 0, 0.00000000000000000000e+00) (0, 0, 0.00000000000000000000e+00) (0, 0, 0.00000000000000000000e+00) (0, 0, 0.00000000000000000000e+00) (0, 0, 0.00000000000000000000e+00) (0, 0, 0.00000000000000000000e+00) (0, 0, 0.00000000000000000000e+00) (0, 0, 0.00000000000000000000e+00) (0, 0, 0.00000000000000000000e+00) (0, 0, 0.00000000000000000000e+00) (0, 0, 0.00000000000000000000e+00) (9, 5, 5.00000000000000000000e-01) (9, 5, 5.00000000000000000000e-01) (9, 5, 5.00000000000000000000e-01) (9, 5, 5.00000000000000000000e-01) (9, 5, 5.00000000000000000000e-01) (9, 5, 5.00000000000000000000e-01) (9, 5, 5.00000000000000000000e-01) (9, 5, 5.00000000000000000000e-01) (9, 5, 5.00000000000000000000e-01) (9, 5, 5.00000000000000000000e-01) (9, 5, 5.00000000000000000000e-01) (9, 5, 5.00000000000000000000e-01) (9, 5, 5.00000000000000000000e-01) (9, 5, 5.00000000000000000000e-01) (9, 5, 5.00000000000000000000e-01) (9, 5, 5.00000000000000000000e-01) (0, 5, 0.00000000000000000000e+00) (9, 5, 5.00000000000000000000e-01) (9, 5, 5.00000000000000000000e-01) (9, 5, 5.00000000000000000000e-01) (9, 5, 5.00000000000000000000e-01) (9, 5, 5.00000000000000000000e-01) (9, 5, 5.00000000000000000000e-01) (9, 5, 5.00000000000000000000e-01) (9, 5, 5.00000000000000000000e-01) (9, 5, 5.00000000000000000000e-01) (9, 5, 5.00000000000000000000e-01) (9, 5, 5.00000000000000000000e-01) (9, 5, 5.00000000000000000000e-01) (9, 5, 5.00000000000000000000e-01) (9, 5, 5.00000000000000000000e-01) (9, 5, 5.00000000000000000000e-01) (9, 5, 5.00000000000000000000e-01) (0, 5, 0.00000000000000000000e+00) 
connections (connected_to_neuron, weight)=(16, 1.80172975433930737665e-01) (7, 3.24592931078584945315e-01) (5, 1.41275850205046293873e+00) (6, 6.42883779530482479814e-01) (2, 3.33384166809063797743e-01) (0, 9.47479290488612152510e-02) (8, 1.69865139210324977981e+00) (14, -5.23054524517009844509e-02) (9, -1.66143495264902990582e-01) (16, -1.07143465335241172554e+00) (14, -1.72455559031976617124e-02) (7, -4.63279325065552582963e-01) (11, -8.06075379217096460449e-03) (8, 1.26294169942901235437e+00) (4, 1.14406269514823866196e+00) (5, -5.98581831880413028912e-01) (6, 5.60282430835424699600e-02) (10, 2.34343265638024350617e-01) (16, -3.64840285096272531895e-01) (7, 2.90252025579564643110e-01) (11, 2.44889677896525520540e-02) (1, 8.87688272468479949717e-02) (2, 3.00660085574914692774e-01) (10, 1.56951157815793773675e-01) (9, -2.14849602769791279966e-02) (3, 3.38671454300186858255e-01) (6, 1.36176550741185037330e-01) (16, -2.32473282783405066354e+00) (1, -3.96418618900817143480e-01) (9, -7.69400422175309101069e-02) (12, 1.82015737392594634247e-01) (15, -2.86329734031509457182e-02) (2, -2.26660607641662570355e-01) (11, -9.61334915282004293102e-02) (4, 1.84774019224637986447e+00) (8, 1.33608539497024725318e-01) (16, -1.63907154297581264535e-01) (14, 3.42461338947149945833e-02) (3, 7.19883315414719282543e-01) (5, -8.75524955326955067747e-02) (9, -4.60442957684437173538e-02) (2, 3.24878311289173826726e-01) (1, 3.76351905518258644801e-01) (13, -2.35864099532873891518e-02) (0, 3.32091872319046840789e-02) (16, 4.25274390187204143210e-01) (0, 2.64597262951019214505e-02) (2, -1.41366806170500930451e-01) (14, -2.22928387181974933806e-02) (3, -4.98091795919989310804e-01) (8, 5.51037554209603541722e-01) (5, -3.21449554451742891548e-03) (10, -4.80526352829336644845e-01) (13, 3.77539379259088439533e-02) (16, -4.51332677344138455400e-01) (14, 3.99484714489837591800e-02) (10, 4.64711040772935735088e-01) (7, -6.63428655177564358114e-02) (11, -1.25004647736041946127e-01) (5, -1.85678929609578635684e+00) (13, 8.07061513027613336435e-02) (9, 9.56760417829840142945e-02) (3, 1.95917424603166812069e+00) (16, -1.78325053134284550183e+00) (14, 3.15292529425859058279e-01) (12, 4.93088762038454586634e-01) (7, -1.30942227860318571864e+00) (6, -4.69948830353918545200e+00) (8, -6.31253825048354366700e-01) (9, -3.92254912055940152538e-01) (10, -6.66279900293372850939e+00) (1, 5.51922582141415585255e+00) (16, -2.74898064205398695581e-01) (5, 1.79107561946193327707e+00) (14, -1.85903797404143485139e-02) (8, -7.97331487888681446352e-03) (9, -1.64781097164700074398e-01) (10, 1.49268483313564481740e+00) (7, 1.30046777897674181723e+00) (13, 3.89178003869997235498e-01) (12, 1.18435290613869503851e+00) (16, -3.37295160360733092819e-01) (3, -8.42098440416954918675e-01) (11, 3.93413262536863594931e-01) (12, 4.84492157368123166350e+00) (15, 4.45920681266161467171e-02) (1, -1.78253042295946340090e+00) (4, 5.99805989012218640499e-02) (10, 7.80139060219435975796e+00) (13, 4.30332705975137508325e-01) (16, -2.59579944389150718553e-01) (4, -6.63542677539907532758e-02) (8, 5.51195026907697060992e-01) (3, 6.11491295177849947251e-01) (11, -6.92457916996616629213e-02) (13, -1.70611515968143029331e-02) (7, -3.09178880563687197292e-01) (0, -3.12021773923604923973e-02) (1, 9.38041983063588602487e-02) (16, 2.95910283472955948358e-01) (4, -6.64966615323943077698e-01) (8, -4.75844542742903164889e-01) (10, 2.59970292702833116749e+00) (11, -1.42970650342772093166e-01) (14, 4.60464375212775098301e-02) (13, -1.43701716588303524125e-01) (5, -1.61383899505928907203e-01) (3, 3.25792102912098835432e+00) (16, 1.44701836677817463617e+00) (13, -9.47246890250107859144e-02) (5, 9.05988190407316595909e-01) (11, -6.41093342365100377078e-02) (8, -6.70708203464099650404e-01) (4, 2.47489855303789996199e+00) (2, 5.03168590575498675399e-01) (3, -4.09857000675901472775e-01) (7, 1.66681782366228170567e+00) (16, 6.49495787156491921621e-01) (6, 2.28218569061593767877e-01) (2, 5.17555545419588480804e-01) (12, 3.40967973225790033087e-02) (5, -3.30877729704621370566e-01) (1, 1.06469666454430900160e-01) (8, 1.31746873404872344437e-01) (7, 1.52574001376846357658e+00) (3, 2.80111982264215853000e-01) (16, -6.34999026539446465023e+00) (6, 3.63185432457520374072e+00) (7, -6.36889747863668009842e+00) (2, 3.09434487526597745699e-01) (11, -4.34584809143422207134e-02) (13, -2.11563340828195972643e-01) (1, -2.06097564323059989633e+00) (4, 6.46757614604204356112e+00) (14, 4.19838023492604128784e-01) (16, 3.06255580641149438570e-01) (11, -7.48679444103528528992e-03) (2, -7.87019042599786389225e-01) (9, -1.12616970061494514610e-01) (3, 4.36733598278374185453e-02) (8, 4.31324168496620785618e+00) (5, -3.67176438334016230769e+00) (13, -1.56873052751997171805e-01) (15, -3.37033616953031217589e-02) (33, -2.00622703901651239233e-01) (20, -4.86068474763411861872e-01) (28, 1.35947658645596519689e-01) (29, 1.10473464397933693326e-01) (22, -3.21836436730967900832e-01) (18, 3.73264208127928820424e-01) (31, -5.41638132553459439311e-02) (21, -3.76660827067157366610e-01) (24, 2.67725787925623057162e-02) (33, 2.28164098032656553761e-01) (17, -8.73380463167356846377e-01) (23, -7.00052102928054975628e-01) (20, 2.89890651343560235009e-01) (18, -2.29290701904794919086e-01) (22, 7.86957810536668911361e-01) (24, -1.82040138715958810245e-01) (19, 1.24559643302765210571e+00) (27, 1.19026636300519395029e+00) (33, 7.54400778907152291808e-01) (21, -1.86645321630814198244e+00) (28, 2.27638105307831656310e-01) (20, 5.90218269048650157060e-02) (19, 2.94931535948467660191e+00) (31, 4.73152119535700688147e-01) (23, -2.12720642831568697295e-02) (24, 5.54822461848564540965e-01) (29, -4.17360365948968692340e-01) (33, -1.47911127749944915077e-01) (21, -1.75873052944534397080e-01) (30, -2.88702084597281971590e-01) (24, 3.28453632512254178888e-02) (28, 2.97327363535574928921e-01) (29, 2.63288427240322531198e-01) (22, 3.33449446254080628105e-01) (31, -1.97572652128807785266e-01) (20, 1.06570872649693181716e-02) (33, -3.08494201491593816877e-02) (22, 1.40539723025190521621e-01) (30, 1.87591631359534209700e-02) (24, 1.79526091965300296782e-02) (27, -7.38204192328669184242e-02) (31, 1.32066448240450939021e-03) (21, 9.50304836296103072613e-02) (18, -3.86711854995319195827e-02) (20, -2.27635367732186497114e-02) (33, 3.43021313504419111950e-01) (23, -1.44099349687671962617e-01) (24, 3.13345326255804303497e-04) (18, -1.89818857084396962198e-02) (29, -2.01098782709845547156e-01) (20, 5.30324292264320207302e-01) (19, 2.67869104142638425614e-01) (30, -1.07261284796473010950e-01) (31, -1.45855277919946152432e-01) (33, -2.05751564634830491629e-01) (18, -5.96723422192860564195e-01) (29, 4.15441509391072327784e-01) (24, -3.90868801423273348750e-02) (31, -1.10288695033485831254e-01) (30, -5.75236768566893541532e-01) (19, 5.57720400141042405018e-01) (25, -1.10017038746736461885e-01) (32, 4.90364950564215584805e-01) (33, 3.08173727436515882197e-04) (27, 1.70359909209064785962e+00) (28, -1.10774212253307857701e+00) (22, -2.30515934976898506648e+00) (20, -3.62629982249467130995e-01) (30, 8.10366507048245310330e-01) (19, -1.61602271332409586080e+00) (21, -2.57667629133460251989e-01) (24, -5.65073554256837681797e-02) (33, -3.54885715211763985710e-01) (19, -6.45430493830989826520e-01) (20, -3.11047868274774264030e-01) (32, 2.46491648004103355504e-03) (17, 4.64728097038309834188e-02) (24, -1.49625771672363353654e-02) (23, 1.04450903492284932761e-01) (28, 4.50793984546114592793e-02) (29, 2.06396974630216861746e-01) (33, -3.31504518275114058029e-04) (26, -5.30629080416078702243e-01) (25, 4.40048935496789528354e-01) (18, 1.12032649754907986939e+00) (20, -9.01626900778780715484e-01) (17, -2.03149785161557877577e-01) (21, -9.01664111517665123330e-01) (22, -1.23284132728846662630e+00) (27, -3.51842342759265541696e-02) (33, -3.44991498815910221931e-02) (31, 3.51413375826880869379e-02) (23, -1.46608518028107065456e-01) (20, 8.00675296943017672513e-02) (28, 2.66485087793006780732e-01) (21, -1.39790552767809495016e-01) (19, -8.68176823334751573968e-02) (27, -3.12188182854488738283e-01) (26, -6.70771432567736081154e-02) (33, -1.99523095466566623146e-02) (21, 1.38288659050650075688e-01) (25, 6.30056132303330046485e-02) (24, -3.47987038778830373720e-02) (18, 1.30472307492790401406e-01) (17, -3.44466441846126916748e-02) (29, 2.15283377600704733945e-02) (20, -1.19636531041170071643e-01) (26, -5.30613487848868511931e-02) (33, -4.91611383011452112574e-03) (30, 7.21455804174204601287e-02) (19, -1.44350774794471559126e-01) (28, -3.70083176046088202504e-02) (27, 1.05241298885358894322e-01) (18, -4.89131087198279440598e-02) (23, 5.23312331435321562156e-02) (31, 4.53648807829562655813e-02) (29, 4.20573117025023063276e-02) (33, -3.16260256184589111372e-02) (30, -6.44120220514257380007e-02) (20, -8.87985772070413875712e-02) (21, 7.23826664445483408672e-02) (32, -1.41721030237457520234e-02) (28, -8.58631563973362710307e-02) (23, 8.10784976542320845461e-02) (18, -5.46684477629692106015e-02) (17, 1.06411791487365944842e-01) (33, -7.46398989785100469563e-02) (18, 2.02808142307128735915e-02) (24, 3.38700251361068460643e-02) (29, 6.84736697330003835082e-03) (27, -8.00682323313625932126e-02) (21, 1.45350651779563438959e-02) (28, 9.10854246789946503382e-02) (26, 4.58818553398898168472e-02) (22, 2.74432881853862942201e-01) (33, -2.26471169075065162368e-02) (24, 3.90047478367456929016e-02) (22, 1.69946422792695867043e-01) (30, 6.46320047005258246919e-02) (29, 3.51243075602561821702e-02) (25, -2.92081461702677173953e-02) (27, 1.26424224668225254620e-01) (32, -1.11111101840566911525e-01) (26, 9.24446936350414305572e-02) 
